{"learner":{"attributes":{},"feature_names":[],"feature_types":[],"gradient_booster":{"model":{"cats":{"enc":[],"feature_segments":[],"sorted_idx":[]},"gbtree_model_param":{"num_parallel_tree":"1","num_trees":"200"},"iteration_indptr":[0,1,2,3,4,5,6,7,8,9,10,11,12,13,14,15,16,17,18,19,20,21,22,23,24,25,26,27,28,29,30,31,32,33,34,35,36,37,38,39,40,41,42,43,44,45,46,47,48,49,50,51,52,53,54,55,56,57,58,59,60,61,62,63,64,65,66,67,68,69,70,71,72,73,74,75,76,77,78,79,80,81,82,83,84,85,86,87,88,89,90,91,92,93,94,95,96,97,98,99,100,101,102,103,104,105,106,107,108,109,110,111,112,113,114,115,116,117,118,119,120,121,122,123,124,125,126,127,128,129,130,131,132,133,134,135,136,137,138,139,140,141,142,143,144,145,146,147,148,149,150,151,152,153,154,155,156,157,158,159,160,161,162,163,164,165,166,167,168,169,170,171,172,173,174,175,176,177,178,179,180,181,182,183,184,185,186,187,188,189,190,191,192,193,194,195,196,197,198,199,200],"tree_info":[0,0,0,0,0,0,0,0,0,0,0,0,0,0,0,0,0,0,0,0,0,0,0,0,0,0,0,0,0,0,0,0,0,0,0,0,0,0,0,0,0,0,0,0,0,0,0,0,0,0,0,0,0,0,0,0,0,0,0,0,0,0,0,0,0,0,0,0,0,0,0,0,0,0,0,0,0,0,0,0,0,0,0,0,0,0,0,0,0,0,0,0,0,0,0,0,0,0,0,0,0,0,0,0,0,0,0,0,0,0,0,0,0,0,0,0,0,0,0,0,0,0,0,0,0,0,0,0,0,0,0,0,0,0,0,0,0,0,0,0,0,0,0,0,0,0,0,0,0,0,0,0,0,0,0,0,0,0,0,0,0,0,0,0,0,0,0,0,0,0,0,0,0,0,0,0,0,0,0,0,0,0,0,0,0,0,0,0,0,0,0,0,0,0,0,0,0,0,0,0],"trees":[{"base_weights":[-7.8324604E-8,1.385681E1,-1.0514505E-1,1.4146945E0,1.3481338E-1],"categories":[],"categories_nodes":[],"categories_segments":[],"categories_sizes":[],"default_left":[1,1,0,0,0],"id":0,"left_children":[1,3,-1,-1,-1],"loss_changes":[9.103554E3,1.408584E2,0E0,0E0,0E0],"parents":[2147483647,0,0,1,1],"right_children":[2,4,-1,-1,-1],"split_conditions":[5E0,6.564837E-1,-1.0514505E-1,1.4146945E0,1.3481338E-1],"split_indices":[15247,15062,0,0,0],"split_type":[0,0,0,0,0],"sum_hessian":[6.2282574E2,4.3067738E1,5.7975806E2,4.196344E1,1.104301E0],"tree_param":{"num_deleted":"0","num_feature":"15251","num_nodes":"5","size_leaf_vector":"1"}},{"base_weights":[-8.3446786E-2,3.7943523E0,-1.045964E-1,-6.598544E-2,3.8398666E0,-1.2719995E-2,3.872618E0,9.2975557E-1,3.9201355E0,1.1752579E-1,2.5770176E-2,3.9525406E0,2.5770176E-2,5.0819224E-1,3.7560663E-1],"categories":[],"categories_nodes":[],"categories_segments":[],"categories_sizes":[],"default_left":[1,0,0,0,0,0,0,0,1,0,0,0,0,0,0],"id":1,"left_children":[1,3,-1,-1,5,-1,7,9,11,-1,-1,13,-1,-1,-1],"loss_changes":[2.4611558E3,2.911731E1,0E0,0E0,1.737622E1,0E0,1.4382446E1,2.5140476E-1,1.4001587E1,0E0,0E0,8.732422E0,0E0,0E0,0E0],"parents":[2147483647,0,0,1,1,4,4,6,6,7,7,8,8,11,11],"right_children":[2,4,-1,-1,6,-1,8,10,12,-1,-1,14,-1,-1,-1],"split_conditions":[5E0,2.00001E0,-1.045964E-1,-6.598544E-2,2.00001E0,-1.2719995E-2,2.00001E0,7E0,4.4772062E-1,1.1752579E-1,2.5770176E-2,2.00001E0,2.5770176E-2,5.0819224E-1,3.7560663E-1],"split_indices":[15247,4979,0,0,4970,0,9226,15248,12344,0,0,7983,0,0,0],"split_type":[0,0,0,0,0,0,0,0,0,0,0,0,0,0,0],"sum_hessian":[6.573311E2,1.3012799E2,5.272031E2,1.1797031E0,1.2894829E2,1.0322403E0,1.2791605E2,2.3594062E0,1.2555665E2,1.1797031E0,1.1797031E0,1.24376945E2,1.1797031E0,1.4746289E1,1.0963065E2],"tree_param":{"num_deleted":"0","num_feature":"15251","num_nodes":"15","size_leaf_vector":"1"}},{"base_weights":[-8.939773E-2,2.716088E0,-1.04101375E-1,-6.9107525E-2,2.7435286E0,-6.394228E-2,2.7713025E0,-1.2126653E-2,2.7906113E0,2.8083794E0,2.4147738E-2,5.5781752E-2,2.8311703E-1],"categories":[],"categories_nodes":[],"categories_segments":[],"categories_sizes":[],"default_left":[1,0,0,0,0,0,0,0,1,0,0,0,0],"id":2,"left_children":[1,3,-1,-1,5,-1,7,-1,9,11,-1,-1,-1],"loss_changes":[1.7170764E3,1.7127197E1,0E0,0E0,1.6975586E1,0E0,9.312866E0,0E0,6.5532227E0,6.54834E0,0E0,0E0,0E0],"parents":[2147483647,0,0,1,1,4,4,6,6,8,8,9,9],"right_children":[2,4,-1,-1,6,-1,8,-1,10,12,-1,-1,-1],"split_conditions":[5E0,2.00001E0,-1.04101375E-1,-6.9107525E-2,2.00001E0,-6.394228E-2,2.00001E0,-1.2126653E-2,4.4772062E-1,6.343211E-1,2.4147738E-2,5.5781752E-2,2.8311703E-1],"split_indices":[15247,2495,0,0,4979,0,4970,0,12344,7182,0,0,0],"split_type":[0,0,0,0,0,0,0,0,0,0,0,0,0],"sum_hessian":[6.411021E2,1.6191165E2,4.7919043E2,1.1003622E0,1.608113E2,1.1301731E0,1.5968112E2,1.0238413E0,1.5865727E2,1.5745807E2,1.1992164E0,1.833937E0,1.5562413E2],"tree_param":{"num_deleted":"0","num_feature":"15251","num_nodes":"13","size_leaf_vector":"1"}},{"base_weights":[-9.193304E-2,2.1417139E0,-1.0365357E-1,-6.680755E-2,2.1615968E0,-6.1997123E-2,2.1815054E0,2.8471938E-1,2.0726156E0,1.9526278E0,2.940627E-1,2.8168306E-1,1.77783E-1],"categories":[],"categories_nodes":[],"categories_segments":[],"categories_sizes":[],"default_left":[1,0,0,0,0,0,0,0,1,0,0,0,0],"id":3,"left_children":[1,3,-1,-1,5,-1,7,-1,9,11,-1,-1,-1],"loss_changes":[1.3102635E3,1.17560425E1,0E0,0E0,1.1515442E1,0E0,7.32312E0,0E0,1.0970764E1,1.6738037E1,0E0,0E0,0E0],"parents":[2147483647,0,0,1,1,4,4,6,6,8,8,9,9],"right_children":[2,4,-1,-1,6,-1,8,-1,10,12,-1,-1,-1],"split_conditions":[5E0,2.00001E0,-1.0365357E-1,-6.680755E-2,2.00001E0,-6.1997123E-2,2.00001E0,2.8471938E-1,3.9883322E-1,2.00001E0,2.940627E-1,2.8168306E-1,1.77783E-1],"split_indices":[15247,2495,0,0,4979,0,7983,0,7984,6096,0,0,0],"split_type":[0,0,0,0,0,0,0,0,0,0,0,0,0],"sum_hessian":[6.1895264E2,1.8358131E2,4.353713E2,1.0608847E0,1.8252043E2,1.0828892E0,1.8143753E2,2.1971197E1,1.5946634E2,1.4295479E2,1.6511547E1,2.1507349E1,1.2144744E2],"tree_param":{"num_deleted":"0","num_feature":"15251","num_nodes":"13","size_leaf_vector":"1"}},{"base_weights":[-9.127428E-2,1.7855589E0,-1.0324737E-1,-7.4564114E-2,1.8028536E0,-6.463703E-2,1.8188652E0,-6.014206E-2,1.8347714E0,-3.512145E-2,1.8493491E0,-1.987235E-2,1.8623862E-1],"categories":[],"categories_nodes":[],"categories_segments":[],"categories_sizes":[],"default_left":[1,0,0,0,0,0,0,0,0,0,0,0,0],"id":4,"left_children":[1,3,-1,-1,5,-1,7,-1,9,-1,11,-1,-1],"loss_changes":[1.0515864E3,1.0048889E1,0E0,0E0,8.932129E0,0E0,8.678406E0,0E0,6.8867188E0,0E0,5.565796E0,0E0,0E0],"parents":[2147483647,0,0,1,1,4,4,6,6,8,8,10,10],"right_children":[2,4,-1,-1,6,-1,8,-1,10,-1,12,-1,-1],"split_conditions":[5E0,2.00001E0,-1.0324737E-1,-7.4564114E-2,2.00001E0,-6.463703E-2,2.00001E0,-6.014206E-2,1E0,-3.512145E-2,2.00001E0,-1.987235E-2,1.8623862E-1],"split_indices":[15247,2237,0,0,2495,0,4979,0,2838,0,4970,0,0],"split_type":[0,0,0,0,0,0,0,0,0,0,0,0,0],"sum_hessian":[5.932588E2,1.9784387E2,3.9541495E2,1.0568197E0,1.9678705E2,1.0224246E0,1.9576462E2,1.0378354E0,1.9472679E2,1.1369971E0,1.935898E2,1.1344112E0,1.9245538E2],"tree_param":{"num_deleted":"0","num_feature":"15251","num_nodes":"13","size_leaf_vector":"1"}},{"base_weights":[-9.1367714E-2,1.5261279E0,-1.0287775E-1,2.1235012E-1,1.4347835E0,2.04578E-1,1.3270999E0,1.2016559E0,2.138406E-1,2.312914E-1,1.1254297E0,2.1249524E-1,1.0446222E-1],"categories":[],"categories_nodes":[],"categories_segments":[],"categories_sizes":[],"default_left":[1,0,0,0,0,0,1,0,0,0,0,0,0],"id":5,"left_children":[1,3,-1,-1,5,-1,7,9,-1,-1,11,-1,-1],"loss_changes":[8.6236035E2,8.341187E0,0E0,0E0,9.397858E0,0E0,1.3649384E1,9.281769E0,0E0,0E0,8.542419E0,0E0,0E0],"parents":[2147483647,0,0,1,1,4,4,6,6,7,7,10,10],"right_children":[2,4,-1,-1,6,-1,8,10,-1,-1,12,-1,-1],"split_conditions":[5E0,2.00001E0,-1.0287775E-1,2.1235012E-1,2.00001E0,2.04578E-1,3.9883322E-1,2.00001E0,2.138406E-1,2.312914E-1,2.00001E0,2.1249524E-1,1.0446222E-1],"split_indices":[15247,7983,0,0,6096,0,7984,1264,0,0,7992,0,0],"split_type":[0,0,0,0,0,0,0,0,0,0,0,0,0],"sum_hessian":[5.667077E2,2.0769795E2,3.5900977E2,2.4596296E1,1.8310165E2,2.47383E1,1.5836336E2,1.3930513E2,1.9058218E1,7.0586166E0,1.3224652E2,7.9997654E0,1.2424675E2],"tree_param":{"num_deleted":"0","num_feature":"15251","num_nodes":"13","size_leaf_vector":"1"}},{"base_weights":[-8.8479176E-2,1.3408095E0,-1.0254028E-1,-7.567021E-2,1.3548695E0,1.8885143E-1,1.2740097E0,1.1924298E0,1.879585E-1,1.7930947E-1,1.0729316E0,1.2383008E-1,6.867017E-2],"categories":[],"categories_nodes":[],"categories_segments":[],"categories_sizes":[],"default_left":[1,0,0,0,0,0,1,0,0,0,1,0,0],"id":6,"left_children":[1,3,-1,-1,5,-1,7,9,-1,-1,11,-1,-1],"loss_changes":[7.247616E2,7.3459473E0,0E0,0E0,6.7962036E0,0E0,7.0597534E0,1.0181763E1,0E0,0E0,8.293228E0,0E0,0E0],"parents":[2147483647,0,0,1,1,4,4,6,6,7,7,10,10],"right_children":[2,4,-1,-1,6,-1,8,10,-1,-1,12,-1,-1],"split_conditions":[5E0,2.00001E0,-1.0254028E-1,-7.567021E-2,2.00001E0,1.8885143E-1,3.9883322E-1,2.00001E0,1.879585E-1,1.7930947E-1,4E0,1.2383008E-1,6.867017E-2],"split_indices":[15247,2237,0,0,7983,0,7984,6096,0,0,15247,0,0],"split_type":[0,0,0,0,0,0,0,0,0,0,0,0,0],"sum_hessian":[5.391898E2,2.1332649E2,3.258633E2,1.068747E0,2.1225775E2,2.4988348E1,1.872694E2,1.676531E2,1.9616293E1,2.5495087E1,1.4215802E2,9.79944E1,4.4163616E1],"tree_param":{"num_deleted":"0","num_feature":"15251","num_nodes":"13","size_leaf_vector":"1"}},{"base_weights":[-8.618937E-2,1.1916893E0,-1.0223099E-1,1.7150514E-1,1.1151906E0,1.039827E0,1.6891418E-1,9.327598E-1,1.6220126E-1,1.9055153E-1,8.677291E-1,1.7657533E-1,7.9730205E-2],"categories":[],"categories_nodes":[],"categories_segments":[],"categories_sizes":[],"default_left":[1,0,0,0,1,1,0,0,0,0,0,0,0],"id":7,"left_children":[1,3,-1,-1,5,7,-1,9,-1,-1,11,-1,-1],"loss_changes":[6.1504034E2,6.7920837E0,0E0,0E0,6.5724335E0,9.258453E0,0E0,7.72876E0,0E0,0E0,7.5006943E0,0E0,0E0],"parents":[2147483647,0,0,1,1,4,4,5,5,7,7,10,10],"right_children":[2,4,-1,-1,6,8,-1,10,-1,-1,12,-1,-1],"split_conditions":[5E0,2.00001E0,-1.0223099E-1,1.7150514E-1,3.9883322E-1,3.108137E-1,1.6891418E-1,2.00001E0,1.6220126E-1,1.9055153E-1,2.00001E0,1.7657533E-1,7.9730205E-2],"split_indices":[15247,7983,0,0,7984,6096,0,1264,0,0,7992,0,0],"split_type":[0,0,0,0,0,0,0,0,0,0,0,0,0],"sum_hessian":[5.1212256E2,2.1641962E2,2.957029E2,2.4867844E1,1.9155177E2,1.718044E2,1.9747383E1,1.4731459E2,2.4489801E1,7.4576855E0,1.398569E2,8.420025E0,1.3143687E2],"tree_param":{"num_deleted":"0","num_feature":"15251","num_nodes":"13","size_leaf_vector":"1"}},{"base_weights":[-8.3031096E-2,1.0720019E0,-1.0194631E-1,1.5813174E0,9.9984163E-1,4.987746E-2,1.6152929E-1,9.301606E-1,1.5421495E-1,1.4600424E0,8.2918954E-1,1.5329996E-1,6.608718E-1,1.7289768E-1,7.6923335E-1,8.485654E-2,1.3677314E-2,1.59381E-1,7.044838E-2],"categories":[],"categories_nodes":[],"categories_segments":[],"categories_sizes":[],"default_left":[1,0,0,0,1,0,0,0,0,0,0,0,0,0,0,0,0,0,0],"id":8,"left_children":[1,3,-1,5,7,-1,-1,9,-1,11,13,-1,15,-1,17,-1,-1,-1,-1],"loss_changes":[5.27468E2,6.445053E0,0E0,1.2786102E-1,5.8966064E0,0E0,0E0,8.122009E0,0E0,5.3806305E-1,6.699005E0,0E0,2.7578092E-1,0E0,6.423065E0,0E0,0E0,0E0,0E0],"parents":[2147483647,0,0,1,1,3,3,4,4,7,7,9,9,10,10,12,12,14,14],"right_children":[2,4,-1,6,8,-1,-1,10,-1,12,14,-1,16,-1,18,-1,-1,-1,-1],"split_conditions":[5E0,2.00001E0,-1.0194631E-1,2.00001E0,3.9883322E-1,4.987746E-2,1.6152929E-1,2.00001E0,1.5421495E-1,2.4E1,2.00001E0,1.5329996E-1,4.6713173E-1,1.7289768E-1,2.00001E0,8.485654E-2,1.3677314E-2,1.59381E-1,7.044838E-2],"split_indices":[15247,7983,0,12078,7984,0,0,6096,0,15248,1264,0,6096,0,7992,0,0,0,0],"split_type":[0,0,0,0,0,0,0,0,0,0,0,0,0,0,0,0,0,0,0],"sum_hessian":[4.85659E2,2.17384E2,2.68275E2,2.4381643E1,1.9300237E2,1.2190821E0,2.3162561E1,1.7343315E2,1.956921E1,2.560447E1,1.4782867E2,2.262112E1,2.9833484E0,7.4959917E0,1.4033269E2,1.7408199E0,1.2425284E0,8.497914E0,1.3183478E2],"tree_param":{"num_deleted":"0","num_feature":"15251","num_nodes":"19","size_leaf_vector":"1"}},{"base_weights":[-7.949437E-2,9.720772E-1,-1.0168298E-1,1.4763272E0,9.030802E-1,4.7367595E-2,1.5078273E-1,8.37851E-1,1.4244384E-1,9.737815E-1,5.015699E-1,-7.5313106E-2,9.9685025E-1,3.352471E-3,8.2651234E-1,2.2396965E-2,1.0360368E-1,8.462339E-2,-1.629866E-2,8.70454E-2,-4.024104E-3],"categories":[],"categories_nodes":[],"categories_segments":[],"categories_sizes":[],"default_left":[1,0,0,0,1,0,0,1,0,0,0,0,0,0,1,0,0,0,0,0,0],"id":9,"left_children":[1,3,-1,5,7,-1,-1,9,-1,11,13,-1,15,17,19,-1,-1,-1,-1,-1,-1],"loss_changes":[4.5560205E2,6.247055E0,0E0,6.4266205E-2,5.4117737E0,0E0,0E0,7.5136185E0,0E0,5.6748276E0,8.48913E0,0E0,3.4751663E0,3.1818035E0,1.2440414E0,0E0,0E0,0E0,0E0,0E0,0E0],"parents":[2147483647,0,0,1,1,3,3,4,4,7,7,9,9,10,10,12,12,13,13,14,14],"right_children":[2,4,-1,6,8,-1,-1,10,-1,12,14,-1,16,18,20,-1,-1,-1,-1,-1,-1],"split_conditions":[5E0,2.00001E0,-1.0168298E-1,2.00001E0,3.9883322E-1,4.7367595E-2,1.5078273E-1,4E0,1.4244384E-1,2.00001E0,2E1,-7.5313106E-2,4E0,1E0,5.156253E-1,2.2396965E-2,1.0360368E-1,8.462339E-2,-1.629866E-2,8.70454E-2,-4.024104E-3],"split_indices":[15247,7983,0,12078,7984,0,0,15247,0,2495,15248,0,15248,7992,10390,0,0,0,0,0,0],"split_type":[0,0,0,0,0,0,0,0,0,0,0,0,0,0,0,0,0,0,0,0,0],"sum_hessian":[4.6022043E2,2.1687599E2,2.4334442E2,2.364853E1,1.9322746E2,1.2088253E0,2.2439705E1,1.7405748E2,1.9169992E1,1.2260336E2,5.1454113E1,1.1990067E0,1.2140436E2,2.0710339E1,3.0743774E1,6.182464E0,1.1522189E2,2.7397811E0,1.7970556E1,2.9256302E1,1.4874713E0],"tree_param":{"num_deleted":"0","num_feature":"15251","num_nodes":"21","size_leaf_vector":"1"}},{"base_weights":[-7.694246E-2,8.832467E-1,-1.0143808E-1,1.3905144E0,8.1653744E-1,4.5010947E-2,1.4205147E-1,7.432731E-1,1.290159E-1,6.62775E-1,1.3273266E-1,1.5268382E-1,6.083368E-1,1.3864969E-1,5.5013146E-2],"categories":[],"categories_nodes":[],"categories_segments":[],"categories_sizes":[],"default_left":[1,0,0,0,1,0,0,1,0,0,0,0,0,0,0],"id":10,"left_children":[1,3,-1,5,7,-1,-1,9,-1,11,-1,-1,13,-1,-1],"loss_changes":[3.9444165E2,6.191574E0,0E0,3.0433655E-2,5.7651215E0,0E0,0E0,7.1212463E0,0E0,6.2003326E0,0E0,0E0,5.770382E0,0E0,0E0],"parents":[2147483647,0,0,1,1,3,3,4,4,7,7,9,9,12,12],"right_children":[2,4,-1,6,8,-1,-1,10,-1,12,-1,-1,14,-1,-1],"split_conditions":[5E0,2.00001E0,-1.0143808E-1,2.00001E0,3.108137E-1,4.5010947E-2,1.4205147E-1,3.9883322E-1,1.290159E-1,2.00001E0,1.3273266E-1,1.5268382E-1,2.00001E0,1.3864969E-1,5.5013146E-2],"split_indices":[15247,7983,0,12078,6096,0,0,7984,0,1264,0,0,7992,0,0],"split_type":[0,0,0,0,0,0,0,0,0,0,0,0,0,0,0],"sum_hessian":[4.362156E2,2.1552145E2,2.2069415E2,2.274216E1,1.927793E2,1.1978297E0,2.154433E1,1.6917847E2,2.3600824E1,1.5056183E2,1.8616642E1,7.320519E0,1.4324132E2,8.380459E0,1.3486086E2],"tree_param":{"num_deleted":"0","num_feature":"15251","num_nodes":"15","size_leaf_vector":"1"}},{"base_weights":[-7.3554344E-2,8.080641E-1,-1.0120894E-1,1.3187853E0,7.4356323E-1,4.279412E-2,1.3479818E-1,6.746886E-1,1.200181E-1,5.9887034E-1,1.245183E-1,7.305141E-1,2.9685277E-1,-7.458272E-2,7.546243E-2,-1.6199403E-2,6.2059414E-2],"categories":[],"categories_nodes":[],"categories_segments":[],"categories_sizes":[],"default_left":[1,0,0,0,1,0,0,1,0,1,0,0,0,0,0,0,0],"id":11,"left_children":[1,3,-1,5,7,-1,-1,9,-1,11,-1,13,15,-1,-1,-1,-1],"loss_changes":[3.4363455E2,6.075302E0,0E0,1.4209747E-2,5.243202E0,0E0,0E0,6.586891E0,0E0,5.809147E0,0E0,4.2956696E0,7.1853514E0,0E0,0E0,0E0,0E0],"parents":[2147483647,0,0,1,1,3,3,4,4,7,7,9,9,11,11,12,12],"right_children":[2,4,-1,6,8,-1,-1,10,-1,12,-1,14,16,-1,-1,-1,-1],"split_conditions":[5E0,2.00001E0,-1.0120894E-1,2.00001E0,3.108137E-1,4.279412E-2,1.3479818E-1,3.9883322E-1,1.200181E-1,4E0,1.245183E-1,2.00001E0,2E1,-7.458272E-2,7.546243E-2,-1.6199403E-2,6.2059414E-2],"split_indices":[15247,7983,0,12078,6096,0,0,7984,0,15247,0,2495,15248,0,0,0,0],"split_type":[0,0,0,0,0,0,0,0,0,0,0,0,0,0,0,0,0],"sum_hessian":[4.1331522E2,2.1319151E2,2.001237E2,2.1725086E1,1.9146643E2,1.1862915E0,2.0538795E1,1.6852437E2,2.2942066E1,1.5056424E2,1.7960127E1,1.0387033E2,4.669391E1,1.1880556E0,1.02682274E2,1.9523037E1,2.7170872E1],"tree_param":{"num_deleted":"0","num_feature":"15251","num_nodes":"17","size_leaf_vector":"1"}},{"base_weights":[-7.091745E-2,7.400166E-1,-1.0099303E-1,1.2576494E0,6.773868E-1,4.0705435E-2,1.2865628E-1,6.1214817E-1,1.12224996E-1,5.403374E-1,1.1741916E-1,1.3901357E-1,4.895466E-1,1.2608424E-1,4.3421164E-2],"categories":[],"categories_nodes":[],"categories_segments":[],"categories_sizes":[],"default_left":[1,0,0,0,1,0,0,1,0,0,0,0,0,0,0],"id":12,"left_children":[1,3,-1,5,7,-1,-1,9,-1,11,-1,-1,13,-1,-1],"loss_changes":[2.998567E2,5.9999695E0,0E0,8.617401E-3,4.847786E0,0E0,0E0,6.1670456E0,0E0,5.8489265E0,0E0,0E0,5.610775E0,0E0,0E0],"parents":[2147483647,0,0,1,1,3,3,4,4,7,7,9,9,12,12],"right_children":[2,4,-1,6,8,-1,-1,10,-1,12,-1,-1,14,-1,-1],"split_conditions":[5E0,2.00001E0,-1.0099303E-1,2.00001E0,3.108137E-1,4.0705435E-2,1.2865628E-1,3.9883322E-1,1.12224996E-1,2.00001E0,1.1741916E-1,1.3901357E-1,2.00001E0,1.2608424E-1,4.3421164E-2],"split_indices":[15247,7983,0,12078,6096,0,0,7984,0,1264,0,0,7992,0,0],"split_type":[0,0,0,0,0,0,0,0,0,0,0,0,0,0,0],"sum_hessian":[3.9180136E2,2.1035239E2,1.8144899E2,2.0644627E1,1.8970776E2,1.1743771E0,1.947025E1,1.6751755E2,2.2190216E1,1.5027827E2,1.7239267E1,6.9880977E0,1.4329018E2,8.133558E0,1.3515662E2],"tree_param":{"num_deleted":"0","num_feature":"15251","num_nodes":"15","size_leaf_vector":"1"}},{"base_weights":[-6.746753E-2,6.8053734E-1,-1.0078807E-1,1.2046285E0,6.1986995E-1,3.8734637E-2,1.2336631E-1,-8.9603655E-2,6.342184E-1,-7.802423E-2,6.494783E-1,6.6343373E-1,-8.158182E-2,6.0799506E-2,1.1658148E-1],"categories":[],"categories_nodes":[],"categories_segments":[],"categories_sizes":[],"default_left":[1,0,0,0,0,0,0,0,0,0,1,1,0,0,0],"id":13,"left_children":[1,3,-1,5,7,-1,-1,-1,9,-1,11,13,-1,-1,-1],"loss_changes":[2.6282974E2,5.871872E0,0E0,9.462357E-3,4.6710815E0,0E0,0E0,0E0,4.5526276E0,0E0,4.344475E0,4.4376907E0,0E0,0E0,0E0],"parents":[2147483647,0,0,1,1,3,3,4,4,8,8,10,10,11,11],"right_children":[2,4,-1,6,8,-1,-1,-1,10,-1,12,14,-1,-1,-1],"split_conditions":[5E0,2.00001E0,-1.0078807E-1,2.00001E0,2.00001E0,3.8734637E-2,1.2336631E-1,-8.9603655E-2,2.00001E0,-7.802423E-2,5.0943834E-1,3.9883322E-1,-8.158182E-2,6.0799506E-2,1.1658148E-1],"split_indices":[15247,7983,0,12078,2237,0,0,0,4979,0,13883,7984,0,0,0],"split_type":[0,0,0,0,0,0,0,0,0,0,0,0,0,0,0],"sum_hessian":[3.7166327E2,2.071625E2,1.6450076E2,1.9536348E1,1.8762616E2,1.1622269E0,1.8374123E1,1.1831082E0,1.8644304E2,1.454921E0,1.8498813E2,1.83785E2,1.2031189E0,1.6751018E2,1.6274828E1],"tree_param":{"num_deleted":"0","num_feature":"15251","num_nodes":"15","size_leaf_vector":"1"}},{"base_weights":[-6.572502E-2,6.225172E-1,-1.0059191E-1,1.1579121E0,5.6348914E-1,3.6872692E-2,1.1873924E-1,1.0051864E0,4.9813932E-1,1.0811503E-1,3.1689414E-1,4.3245926E-1,1.0544225E-1,5.621621E-2,-1.2908652E-2,1.2868421E-1,3.839714E-1,1.14423566E-1,3.316258E-2],"categories":[],"categories_nodes":[],"categories_segments":[],"categories_sizes":[],"default_left":[1,0,0,0,0,0,0,0,1,0,0,0,0,0,0,0,0,0,0],"id":14,"left_children":[1,3,-1,5,7,-1,-1,9,11,-1,13,15,-1,-1,-1,-1,17,-1,-1],"loss_changes":[2.2988756E2,5.83181E0,0E0,1.4144897E-2,4.889786E0,0E0,0E0,8.6447906E-1,5.5602684E0,0E0,4.783137E-1,5.677309E0,0E0,0E0,0E0,0E0,5.2873707E0,0E0,0E0],"parents":[2147483647,0,0,1,1,3,3,4,4,7,7,8,8,10,10,11,11,16,16],"right_children":[2,4,-1,6,8,-1,-1,10,12,-1,14,16,-1,-1,-1,-1,18,-1,-1],"split_conditions":[5E0,2.00001E0,-1.0059191E-1,2.00001E0,2.00001E0,3.6872692E-2,1.1873924E-1,2.4E1,3.9883322E-1,1.0811503E-1,4.6713173E-1,2.00001E0,1.0544225E-1,5.621621E-2,-1.2908652E-2,1.2868421E-1,2.00001E0,1.14423566E-1,3.316258E-2],"split_indices":[15247,7983,0,12078,6096,0,0,15248,7984,0,6096,1264,0,0,0,0,7992,0,0],"split_type":[0,0,0,0,0,0,0,0,0,0,0,0,0,0,0,0,0,0,0],"sum_hessian":[3.5330072E2,2.041768E2,1.4912393E2,1.8426756E1,1.8575005E2,1.1499588E0,1.7276798E1,2.2086498E1,1.6366354E2,1.937715E1,2.709348E0,1.479702E2,1.569335E1,1.5799458E0,1.1294022E0,6.5750356E0,1.4139517E2,7.76452E0,1.3363065E2],"tree_param":{"num_deleted":"0","num_feature":"15251","num_nodes":"19","size_leaf_vector":"1"}},{"base_weights":[-6.202754E-2,5.7431996E-1,-1.0040251E-1,1.1161435E0,5.173143E-1,3.5111587E-2,1.14633575E-1,9.4829327E-1,4.5540237E-1,1.0222626E-1,2.9891837E-1,3.9339572E-1,1.0036605E-1,5.3364452E-2,-1.2196961E-2,1.2282844E-1,3.4789553E-1,1.4295995E-1,3.1050056E-2],"categories":[],"categories_nodes":[],"categories_segments":[],"categories_sizes":[],"default_left":[1,0,0,0,0,0,0,0,1,0,0,0,0,0,0,0,0,0,0],"id":15,"left_children":[1,3,-1,5,7,-1,-1,9,11,-1,13,15,-1,-1,-1,-1,17,-1,-1],"loss_changes":[2.0250232E2,5.651947E0,0E0,2.1011353E-2,4.487026E0,0E0,0E0,7.623062E-1,5.15036E0,0E0,4.2930782E-1,5.2019176E0,0E0,0E0,0E0,0E0,5.2969265E0,0E0,0E0],"parents":[2147483647,0,0,1,1,3,3,4,4,7,7,8,8,10,10,11,11,16,16],"right_children":[2,4,-1,6,8,-1,-1,10,12,-1,14,16,-1,-1,-1,-1,18,-1,-1],"split_conditions":[5E0,2.00001E0,-1.0040251E-1,2.00001E0,2.00001E0,3.5111587E-2,1.14633575E-1,2.4E1,3.9883322E-1,1.0222626E-1,4.6713173E-1,2.00001E0,1.0036605E-1,5.3364452E-2,-1.2196961E-2,1.2282844E-1,4.541809E-1,1.4295995E-1,3.1050056E-2],"split_indices":[15247,7983,0,12078,6096,0,0,15248,7984,0,6096,1264,0,0,0,0,5984,0,0],"split_type":[0,0,0,0,0,0,0,0,0,0,0,0,0,0,0,0,0,0,0],"sum_hessian":[3.3585846E2,2.0068205E2,1.351764E2,1.7335278E1,1.8334679E2,1.137671E0,1.6197605E1,2.1231829E1,1.6211494E2,1.8545153E1,2.686677E0,1.471861E2,1.492885E1,1.5527937E0,1.1338834E0,6.2633815E0,1.4092271E2,3.464929E0,1.374578E2],"tree_param":{"num_deleted":"0","num_feature":"15251","num_nodes":"19","size_leaf_vector":"1"}},{"base_weights":[-5.8255766E-2,5.29977E-1,-1.0021795E-1,1.078286E0,4.750323E-1,3.3444207E-2,1.10941306E-1,4.179411E-1,9.1039014E-1,3.600732E-1,9.569151E-2,9.5097727E-1,3.952782E-1,4.8637396E-1,7.858034E-2,4.2296818E-1,1.0107255E-1,7.344621E-2,-1.1525131E-2,-7.8011975E-2,5.0958462E-2,-3.2832894E-2,3.7939332E-2,8.2714364E-2,-3.0408164E-2],"categories":[],"categories_nodes":[],"categories_segments":[],"categories_sizes":[],"default_left":[1,0,0,0,1,0,0,1,0,1,0,0,0,0,0,0,0,0,0,0,0,0,0,0,0],"id":16,"left_children":[1,3,-1,5,7,-1,-1,9,11,13,-1,15,17,19,21,23,-1,-1,-1,-1,-1,-1,-1,-1,-1],"loss_changes":[1.7868242E2,5.46257E0,0E0,2.8963089E-2,4.1442947E0,0E0,0E0,4.7327385E0,4.76017E-2,5.2452602E0,0E0,1.4242554E-1,6.371792E-1,3.407404E0,5.90442E0,1.2964969E0,0E0,0E0,0E0,0E0,0E0,0E0,0E0,0E0,0E0],"parents":[2147483647,0,0,1,1,3,3,4,4,7,7,8,8,9,9,11,11,12,12,13,13,14,14,15,15],"right_children":[2,4,-1,6,8,-1,-1,10,12,14,-1,16,18,20,22,24,-1,-1,-1,-1,-1,-1,-1,-1,-1],"split_conditions":[5E0,2.00001E0,-1.0021795E-1,2.00001E0,3.108137E-1,3.3444207E-2,1.10941306E-1,3.9883322E-1,2.4E1,4E0,9.569151E-2,4.5218894E-1,4.6713173E-1,2.00001E0,2E1,3.9499184E-1,1.0107255E-1,7.344621E-2,-1.1525131E-2,-7.8011975E-2,5.0958462E-2,-3.2832894E-2,3.7939332E-2,8.2714364E-2,-3.0408164E-2],"split_indices":[15247,7983,0,12078,6096,0,0,7984,15248,15247,0,6096,6096,2495,15248,6096,0,0,0,0,0,0,0,0,0],"split_type":[0,0,0,0,0,0,0,0,0,0,0,0,0,0,0,0,0,0,0,0,0,0,0,0,0],"sum_hessian":[3.198506E2,1.973222E2,1.2252838E2,1.6275864E1,1.8104634E2,1.1254447E0,1.5150419E1,1.6178981E2,1.925652E1,1.4760953E2,1.4180286E1,1.7065708E1,2.190811E0,1.0138988E2,4.621965E1,2.5560915E0,1.4509617E1,1.0527563E0,1.1380547E0,1.2378153E0,1.0015206E2,1.9606497E1,2.6613153E1,1.554343E0,1.0017486E0],"tree_param":{"num_deleted":"0","num_feature":"15251","num_nodes":"25","size_leaf_vector":"1"}},{"base_weights":[-5.5318393E-2,4.883603E-1,-1.0003634E-1,1.0435331E0,4.353941E-1,3.1864148E-2,1.0757827E-1,3.8073665E-1,8.6536163E-1,3.2602775E-1,9.133769E-2,9.042875E-1,3.787861E-1,1.15966454E-1,2.8369942E-1,4.0157682E-1,9.623338E-2,7.081784E-2,-1.0890828E-2,1.0525586E-1,2.3389561E-2,7.969629E-2,-2.8684992E-2],"categories":[],"categories_nodes":[],"categories_segments":[],"categories_sizes":[],"default_left":[1,0,0,0,1,0,0,1,0,0,0,0,0,0,0,0,0,0,0,0,0,0,0],"id":17,"left_children":[1,3,-1,5,7,-1,-1,9,11,13,-1,15,17,-1,19,21,-1,-1,-1,-1,-1,-1,-1],"loss_changes":[1.5768712E2,5.2765007E0,0E0,3.728485E-2,3.892067E0,0E0,0E0,4.3984146E0,2.6311874E-2,4.8829193E0,0E0,1.1868E-1,5.852902E-1,0E0,5.1870613E0,1.183473E0,0E0,0E0,0E0,0E0,0E0,0E0,0E0],"parents":[2147483647,0,0,1,1,3,3,4,4,7,7,8,8,9,9,11,11,12,12,14,14,15,15],"right_children":[2,4,-1,6,8,-1,-1,10,12,14,-1,16,18,-1,20,22,-1,-1,-1,-1,-1,-1,-1],"split_conditions":[5E0,2.00001E0,-1.0003634E-1,2.00001E0,3.108137E-1,3.1864148E-2,1.0757827E-1,3.9883322E-1,2.4E1,2.00001E0,9.133769E-2,4.5218894E-1,4.6713173E-1,1.15966454E-1,2.00001E0,3.9499184E-1,9.623338E-2,7.081784E-2,-1.0890828E-2,1.0525586E-1,2.3389561E-2,7.969629E-2,-2.8684992E-2],"split_indices":[15247,7983,0,12078,6096,0,0,7984,15248,1264,0,6096,6096,0,7992,6096,0,0,0,0,0,0,0],"split_type":[0,0,0,0,0,0,0,0,0,0,0,0,0,0,0,0,0,0,0,0,0,0,0],"sum_hessian":[3.0495236E2,1.9389117E2,1.1106118E2,1.52582035E1,1.7863298E2,1.1133465E0,1.4144857E1,1.6015907E2,1.8473907E1,1.4670291E2,1.3456148E1,1.6310593E1,2.1633153E0,5.813424E0,1.408895E2,2.5080247E0,1.38025675E1,1.0213759E0,1.1419394E0,7.346222E0,1.3354327E2,1.4929285E0,1.0150961E0],"tree_param":{"num_deleted":"0","num_feature":"15251","num_nodes":"23","size_leaf_vector":"1"}},{"base_weights":[-5.1400673E-2,4.515534E-1,-9.985593E-2,1.0112498E0,4.007352E-1,3.036564E-2,1.0447804E-1,-9.26195E-2,4.1482472E-1,8.8955045E-2,3.5469827E-1,3.031857E-1,8.72426E-1,1.1165302E-1,2.6323661E-2,1.0648193E-1,6.0740817E-2],"categories":[],"categories_nodes":[],"categories_segments":[],"categories_sizes":[],"default_left":[1,0,0,0,0,0,0,0,0,0,1,0,0,0,0,0,0],"id":18,"left_children":[1,3,-1,5,7,-1,-1,-1,9,-1,11,13,15,-1,-1,-1,-1],"loss_changes":[1.3966084E2,5.0432396E0,0E0,4.548645E-2,3.698429E0,0E0,0E0,0E0,4.7109814E0,0E0,3.9483585E0,4.4240923E0,5.492401E-2,0E0,0E0,0E0,0E0],"parents":[2147483647,0,0,1,1,3,3,4,4,8,8,10,10,11,11,12,12],"right_children":[2,4,-1,6,8,-1,-1,-1,10,-1,12,14,16,-1,-1,-1,-1],"split_conditions":[5E0,2.00001E0,-9.985593E-2,2.00001E0,1E0,3.036564E-2,1.0447804E-1,-9.26195E-2,2.00001E0,8.8955045E-2,3.9883322E-1,2.00001E0,6.031409E-1,1.1165302E-1,2.6323661E-2,1.0648193E-1,6.0740817E-2],"split_indices":[15247,7983,0,12078,2838,0,0,0,6096,0,7984,1264,7984,0,0,0,0],"split_type":[0,0,0,0,0,0,0,0,0,0,0,0,0,0,0,0,0],"sum_hessian":[2.912262E2,1.9055968E2,1.0066653E2,1.4288718E1,1.7627097E2,1.10143E0,1.3187287E1,1.1718457E0,1.7509912E2,1.813336E1,1.5696576E2,1.4420349E2,1.2762261E1,5.4895716E0,1.3871393E2,5.645741E0,7.1165204E0],"tree_param":{"num_deleted":"0","num_feature":"15251","num_nodes":"17","size_leaf_vector":"1"}},{"base_weights":[-4.8350357E-2,4.161058E-1,-9.967492E-2,9.809298E-1,3.673701E-1,2.8943507E-2,1.0158741E-1,1.2864791E-1,3.419583E-1,4.476872E-1,1.0653453E-1,-7.6963596E-2,4.6699327E-1,8.367847E-2,1.4431411E-4,-7.3074356E-2,4.85349E-2,-1.9723622E-2,5.5586923E-2],"categories":[],"categories_nodes":[],"categories_segments":[],"categories_sizes":[],"default_left":[1,0,0,0,0,0,0,0,1,0,0,0,0,0,0,0,0,0,0],"id":19,"left_children":[1,3,-1,5,7,-1,-1,-1,9,11,13,-1,15,-1,17,-1,-1,-1,-1],"loss_changes":[1.2362476E2,4.827553E0,0E0,5.3235054E-2,3.6496181E0,0E0,0E0,0E0,4.2272453E0,3.1374664E0,4.2371044E0,0E0,2.9265919E0,0E0,5.4409647E0,0E0,0E0,0E0,0E0],"parents":[2147483647,0,0,1,1,3,3,4,4,8,8,9,9,10,10,12,12,14,14],"right_children":[2,4,-1,6,8,-1,-1,-1,10,12,14,-1,16,-1,18,-1,-1,-1,-1],"split_conditions":[5E0,2.00001E0,-9.967492E-2,2.00001E0,4.541809E-1,2.8943507E-2,1.0158741E-1,1.2864791E-1,4E0,2.00001E0,8.608032E-1,-7.6963596E-2,2.00001E0,8.367847E-2,2.5E1,-7.3074356E-2,4.85349E-2,-1.9723622E-2,5.5586923E-2],"split_indices":[15247,7983,0,12078,5984,0,0,0,15247,2495,7984,0,4979,0,15248,0,0,0,0],"split_type":[0,0,0,0,0,0,0,0,0,0,0,0,0,0,0,0,0,0,0],"sum_hessian":[2.787115E2,1.8746576E2,9.124572E1,1.3371285E1,1.7409447E2,1.0897391E0,1.2281547E1,3.3487687E0,1.707457E2,1.1720657E2,5.3539127E1,1.2230556E0,1.1598352E2,5.935221E0,4.760391E1,1.1648588E0,1.1481866E2,3.560347E1,1.2000439E1],"tree_param":{"num_deleted":"0","num_feature":"15251","num_nodes":"19","size_leaf_vector":"1"}},{"base_weights":[-4.5947045E-2,3.8223007E-1,-9.9491596E-2,9.521666E-1,3.3555326E-1,2.7593007E-2,9.88633E-2,-9.439734E-2,3.500359E-1,3.6393383E-1,-9.148269E-2,3.207141E-1,8.8388824E-1,4.2292934E-2,8.811728E-3,9.333741E-2,2.6538555E-2],"categories":[],"categories_nodes":[],"categories_segments":[],"categories_sizes":[],"default_left":[1,0,0,0,0,0,0,0,1,1,0,1,0,0,0,0,0],"id":20,"left_children":[1,3,-1,5,7,-1,-1,-1,9,11,-1,13,15,-1,-1,-1,-1],"loss_changes":[1.09414055E2,4.6188145E0,0E0,6.0308456E-2,3.5385647E0,0E0,0E0,0E0,3.3550339E0,3.5539436E0,0E0,3.7483425E0,1.359663E-1,0E0,0E0,0E0,0E0],"parents":[2147483647,0,0,1,1,3,3,4,4,8,8,9,9,11,11,12,12],"right_children":[2,4,-1,6,8,-1,-1,-1,10,12,-1,14,16,-1,-1,-1,-1],"split_conditions":[5E0,2.00001E0,-9.9491596E-2,2.00001E0,2.00001E0,2.7593007E-2,9.88633E-2,-9.439734E-2,5.0943834E-1,3.9883322E-1,-9.148269E-2,4E0,2.2E1,4.2292934E-2,8.811728E-3,9.333741E-2,2.6538555E-2],"split_indices":[15247,7983,0,12078,2237,0,0,0,13883,7984,0,15247,15248,0,0,0,0],"split_type":[0,0,0,0,0,0,0,0,0,0,0,0,0,0,0,0,0],"sum_hessian":[2.673401E2,1.8463124E2,8.2708855E1,1.25078535E1,1.7212338E2,1.0783075E0,1.1429546E1,1.2081163E0,1.7091527E2,1.6976225E2,1.1530238E0,1.582269E2,1.1535354E1,1.0935311E2,4.8873787E1,1.020942E1,1.3259338E0],"tree_param":{"num_deleted":"0","num_feature":"15251","num_nodes":"17","size_leaf_vector":"1"}},{"base_weights":[-4.4125125E-2,3.5006455E-1,-9.930422E-2,9.246337E-1,3.054272E-1,2.6309852E-2,9.627076E-2,9.707133E-2,2.7168518E-1,7.2366E-1,2.1381597E-1,8.0185674E-2,1.597836E-1,1.05407946E-1,1.7715971E-1,3.9186206E-2,-1.7934911E-2,7.557655E-2,1.1888256E-2],"categories":[],"categories_nodes":[],"categories_segments":[],"categories_sizes":[],"default_left":[1,0,0,0,0,0,0,0,0,0,0,0,0,0,0,0,0,0,0],"id":21,"left_children":[1,3,-1,5,7,-1,-1,-1,9,11,13,-1,15,-1,17,-1,-1,-1,-1],"loss_changes":[9.6844124E1,4.41107E0,0E0,6.656265E-2,3.5816765E0,0E0,0E0,0E0,4.1458035E0,6.7627716E-1,4.346508E0,0E0,3.4343898E-1,0E0,4.7060356E0,0E0,0E0,0E0,0E0],"parents":[2147483647,0,0,1,1,3,3,4,4,8,8,9,9,10,10,12,12,14,14],"right_children":[2,4,-1,6,8,-1,-1,-1,10,12,14,-1,16,-1,18,-1,-1,-1,-1],"split_conditions":[5E0,2.00001E0,-9.930422E-2,2.00001E0,2.00001E0,2.6309852E-2,9.627076E-2,9.707133E-2,2.00001E0,2.4E1,2.00001E0,8.0185674E-2,4.6713173E-1,1.05407946E-1,2.00001E0,3.9186206E-2,-1.7934911E-2,7.557655E-2,1.1888256E-2],"split_indices":[15247,7983,0,12078,7992,0,0,0,6096,15248,1264,0,6096,0,7984,0,0,0,0],"split_type":[0,0,0,0,0,0,0,0,0,0,0,0,0,0,0,0,0,0,0],"sum_hessian":[2.5697525E2,1.820012E2,7.497404E1,1.1698936E1,1.7030226E2,1.067162E0,1.0631774E1,6.880075E0,1.634222E2,1.7243164E1,1.4617903E2,1.4772513E1,2.4706502E0,4.950229E0,1.4122879E2,1.3745337E0,1.0961165E0,1.1827799E1,1.29401E2],"tree_param":{"num_deleted":"0","num_feature":"15251","num_nodes":"19","size_leaf_vector":"1"}},{"base_weights":[-4.05695E-2,3.2350868E-1,-9.911107E-2,8.9806753E-1,2.810449E-1,2.5090057E-2,9.3781136E-2,1.1988169E-1,2.5602803E-1,2.0556547E-1,7.0012105E-1,9.219949E-2,1.6636121E-1,7.401043E-1,2.7369877E-2,4.4427868E-2,4.081025E-3,2.6402244E-2,8.038666E-2],"categories":[],"categories_nodes":[],"categories_segments":[],"categories_sizes":[],"default_left":[1,0,0,0,0,0,0,0,1,0,0,0,1,0,0,0,0,0,0],"id":22,"left_children":[1,3,-1,5,7,-1,-1,-1,9,11,13,-1,15,17,-1,-1,-1,-1,-1],"loss_changes":[8.619402E1,4.143404E0,0E0,7.1912766E-2,3.5784883E0,0E0,0E0,0E0,3.5763369E0,4.0733013E0,7.91502E-2,0E0,5.002862E0,2.2852802E-1,0E0,0E0,0E0,0E0,0E0],"parents":[2147483647,0,0,1,1,3,3,4,4,8,8,9,9,10,10,12,12,13,13],"right_children":[2,4,-1,6,8,-1,-1,-1,10,12,14,-1,16,18,-1,-1,-1,-1,-1],"split_conditions":[5E0,2.00001E0,-9.911107E-2,2.00001E0,4.541809E-1,2.5090057E-2,9.3781136E-2,1.1988169E-1,3.108137E-1,2.00001E0,2.4E1,9.219949E-2,1E1,4.5218894E-1,2.7369877E-2,4.4427868E-2,4.081025E-3,2.6402244E-2,8.038666E-2],"split_indices":[15247,7983,0,12078,5984,0,0,0,6096,7992,15248,0,15248,6096,0,0,0,0,0],"split_type":[0,0,0,0,0,0,0,0,0,0,0,0,0,0,0,0,0,0,0],"sum_hessian":[2.4713785E2,1.7917105E2,6.79668E1,1.0943968E1,1.682271E2,1.0563221E0,9.887646E0,3.2188702E0,1.6500822E2,1.4948503E2,1.55231905E1,6.5873976E0,1.4289763E2,1.3519892E1,2.0032985E0,4.3676792E1,9.922084E1,2.204051E0,1.1315841E1],"tree_param":{"num_deleted":"0","num_feature":"15251","num_nodes":"19","size_leaf_vector":"1"}},{"base_weights":[-3.7068777E-2,2.982866E-1,-9.89104E-2,8.722567E-1,2.5801763E-1,2.3930019E-2,9.137099E-2,1.0127741E-1,2.306637E-1,1.1399466E-1,2.0589295E-1,6.51064E-1,1.522138E-1,7.282406E-2,1.3544056E-2,1.01120565E-2,7.3460035E-2],"categories":[],"categories_nodes":[],"categories_segments":[],"categories_sizes":[],"default_left":[1,0,0,0,0,0,0,0,0,0,0,0,1,0,0,0,0],"id":23,"left_children":[1,3,-1,5,7,-1,-1,-1,9,-1,11,13,15,-1,-1,-1,-1],"loss_changes":[7.6759964E1,3.8863106E0,0E0,7.630634E-2,3.2273731E0,0E0,0E0,0E0,3.438221E0,0E0,3.7235088E0,5.742111E-1,4.212304E0,0E0,0E0,0E0,0E0],"parents":[2147483647,0,0,1,1,3,3,4,4,8,8,10,10,11,11,12,12],"right_children":[2,4,-1,6,8,-1,-1,-1,10,-1,12,14,16,-1,-1,-1,-1],"split_conditions":[5E0,2.00001E0,-9.89104E-2,2.00001E0,2.00001E0,2.3930019E-2,9.137099E-2,1.0127741E-1,4.541809E-1,1.1399466E-1,2.00001E0,2.4E1,3.9883322E-1,7.282406E-2,1.3544056E-2,1.01120565E-2,7.3460035E-2],"split_indices":[15247,7983,0,12078,1264,0,0,0,5984,0,6096,15248,7984,0,0,0,0],"split_type":[0,0,0,0,0,0,0,0,0,0,0,0,0,0,0,0,0],"sum_hessian":[2.3849919E2,1.7687979E2,6.16194E1,1.024158E1,1.6663821E2,1.0458026E0,9.195778E0,4.5681376E0,1.6207007E2,3.104127E0,1.5896594E2,1.5908128E1,1.4305782E2,1.3478382E1,2.429746E0,1.3259848E2,1.0459339E1],"tree_param":{"num_deleted":"0","num_feature":"15251","num_nodes":"17","size_leaf_vector":"1"}},{"base_weights":[-3.364867E-2,2.7556592E-1,-9.870043E-2,8.470336E-1,2.37417E-1,2.2826374E-2,8.902126E-2,-9.716793E-2,2.5168467E-1,8.769074E-2,2.1486777E-1,8.7205946E-1,1.8172951E-1,9.400491E-2,2.8047753E-2,9.82601E-2,1.5157387E-2],"categories":[],"categories_nodes":[],"categories_segments":[],"categories_sizes":[],"default_left":[1,0,0,0,0,0,0,0,0,0,0,1,0,0,0,0,0],"id":24,"left_children":[1,3,-1,5,7,-1,-1,-1,9,-1,11,13,15,-1,-1,-1,-1],"loss_changes":[6.846281E1,3.6238327E0,0E0,7.973528E-2,3.1057825E0,0E0,0E0,0E0,3.603199E0,0E0,3.2581482E0,2.8653622E-2,3.488542E0,0E0,0E0,0E0,0E0],"parents":[2147483647,0,0,1,1,3,3,4,4,8,8,10,10,11,11,12,12],"right_children":[2,4,-1,6,8,-1,-1,-1,10,-1,12,14,16,-1,-1,-1,-1],"split_conditions":[5E0,2.00001E0,-9.870043E-2,2.00001E0,1E0,2.2826374E-2,8.902126E-2,-9.716793E-2,5.868766E-1,8.769074E-2,2.00001E0,7.475332E-1,2.00001E0,9.400491E-2,2.8047753E-2,9.82601E-2,1.5157387E-2],"split_indices":[15247,7983,0,12078,2838,0,0,0,6096,0,7992,12507,1264,0,0,0,0],"split_type":[0,0,0,0,0,0,0,0,0,0,0,0,0,0,0,0,0],"sum_hessian":[2.3031886E2,1.7444856E2,5.587029E1,9.589864E0,1.648587E2,1.0356128E0,8.554251E0,1.1400837E0,1.6371863E2,7.835665E0,1.5588297E2,6.2676797E0,1.4961528E2,5.0932755E0,1.1744045E0,4.283014E0,1.4533226E2],"tree_param":{"num_deleted":"0","num_feature":"15251","num_nodes":"17","size_leaf_vector":"1"}},{"base_weights":[-3.1022891E-2,2.5327724E-1,-9.847935E-2,8.2226676E-1,2.1718276E-1,2.1776013E-2,8.671645E-1,1.1439593E-1,1.954319E-1,3.625941E-2,9.469154E-2,1.08134106E-1,1.7210367E-1,8.3355737E-1,1.4068188E-1,9.001291E-2,2.673009E-2,9.779859E-3,6.9405496E-2],"categories":[],"categories_nodes":[],"categories_segments":[],"categories_sizes":[],"default_left":[1,0,0,0,0,0,0,0,0,0,0,0,0,1,1,0,0,0,0],"id":25,"left_children":[1,3,-1,5,7,-1,9,-1,11,-1,-1,-1,13,15,17,-1,-1,-1,-1],"loss_changes":[6.101398E1,3.383216E0,0E0,8.220959E-2,3.0913148E0,0E0,1.7234802E-2,0E0,3.1593938E0,0E0,0E0,0E0,3.185626E0,2.3410797E-2,3.5607681E0,0E0,0E0,0E0,0E0],"parents":[2147483647,0,0,1,1,3,3,4,4,6,6,8,8,12,12,13,13,14,14],"right_children":[2,4,-1,6,8,-1,10,-1,12,-1,-1,-1,14,16,18,-1,-1,-1,-1],"split_conditions":[5E0,2.00001E0,-9.847935E-2,2.00001E0,2.00001E0,2.1776013E-2,8E0,1.1439593E-1,4.541809E-1,3.625941E-2,9.469154E-2,1.08134106E-1,2.00001E0,7.475332E-1,3.9883322E-1,9.001291E-2,2.673009E-2,9.779859E-3,6.9405496E-2],"split_indices":[15247,7983,0,12078,9744,0,15248,0,5984,0,0,0,7992,12507,7984,0,0,0,0],"split_type":[0,0,0,0,0,0,0,0,0,0,0,0,0,0,0,0,0,0,0],"sum_hessian":[2.2309354E2,1.7243001E2,5.0663525E1,8.986519E0,1.634435E2,1.0257586E0,7.96076E0,2.5648463E0,1.6087865E2,1.8435445E0,6.1172156E0,2.964025E0,1.5791463E2,6.0037127E0,1.519109E2,4.8445516E0,1.1591612E0,1.4207744E2,9.833467E0],"tree_param":{"num_deleted":"0","num_feature":"15251","num_nodes":"19","size_leaf_vector":"1"}},{"base_weights":[-2.7372729E-2,2.3399833E-1,-9.824528E-2,7.9943144E-1,1.9977239E-1,2.0776056E-2,8.4601194E-1,1.1264788E-1,1.792529E-1,3.459894E-2,9.284433E-2,9.516471E-2,1.5356126E-1,5.82784E-1,1.0499666E-1,6.630586E-2,8.716279E-3,6.0783457E-3,6.617112E-2],"categories":[],"categories_nodes":[],"categories_segments":[],"categories_sizes":[],"default_left":[1,0,0,0,0,0,0,0,0,0,0,0,0,0,1,0,0,0,0],"id":26,"left_children":[1,3,-1,5,7,-1,9,-1,11,-1,-1,-1,13,15,17,-1,-1,-1,-1],"loss_changes":[5.455136E1,3.1623316E0,0E0,8.50749E-2,2.9013138E0,0E0,2.6981354E-2,0E0,3.0457606E0,0E0,0E0,0E0,3.2086315E0,5.6782055E-1,3.4584012E0,0E0,0E0,0E0,0E0],"parents":[2147483647,0,0,1,1,3,3,4,4,6,6,8,8,12,12,13,13,14,14],"right_children":[2,4,-1,6,8,-1,10,-1,12,-1,-1,-1,14,16,18,-1,-1,-1,-1],"split_conditions":[5E0,2.00001E0,-9.824528E-2,2.00001E0,2.00001E0,2.0776056E-2,8E0,1.1264788E-1,2.00001E0,3.459894E-2,9.284433E-2,9.516471E-2,2.00001E0,2.4E1,3.9883322E-1,6.630586E-2,8.716279E-3,6.0783457E-3,6.617112E-2],"split_indices":[15247,7983,0,12078,823,0,15248,0,1264,0,0,0,6096,15248,7984,0,0,0,0],"split_type":[0,0,0,0,0,0,0,0,0,0,0,0,0,0,0,0,0,0,0],"sum_hessian":[2.1660768E2,1.7065935E2,4.594833E1,8.464431E0,1.6219492E2,1.0162427E0,7.4481883E0,2.346005E0,1.598489E2,1.7896433E0,5.658545E0,3.985567E0,1.5586334E2,1.472459E1,1.4113876E2,1.2381376E1,2.3432145E0,1.3178206E2,9.356697E0],"tree_param":{"num_deleted":"0","num_feature":"15251","num_nodes":"19","size_leaf_vector":"1"}},{"base_weights":[-2.4120735E-2,2.1639846E-1,-9.799633E-2,7.7699137E-1,1.8392771E-1,1.982384E-2,8.252206E-1,1.0851574E-1,1.6309007E-1,3.300586E-2,9.104139E-2,1.0331177E-1,1.4075135E-1,7.945686E-1,1.1061934E-1,8.602955E-2,2.5192661E-2,2.0913098E-2,-1.0886042E-2],"categories":[],"categories_nodes":[],"categories_segments":[],"categories_sizes":[],"default_left":[1,0,0,0,0,0,0,0,0,0,0,0,0,1,1,0,0,0,0],"id":27,"left_children":[1,3,-1,5,7,-1,9,-1,11,-1,-1,-1,13,15,17,-1,-1,-1,-1],"loss_changes":[4.880961E1,2.946271E0,0E0,8.711004E-2,2.8601708E0,0E0,3.591013E-2,0E0,2.9496374E0,0E0,0E0,0E0,2.9937112E0,2.3283958E-2,3.2808945E0,0E0,0E0,0E0,0E0],"parents":[2147483647,0,0,1,1,3,3,4,4,6,6,8,8,12,12,13,13,14,14],"right_children":[2,4,-1,6,8,-1,10,-1,12,-1,-1,-1,14,16,18,-1,-1,-1,-1],"split_conditions":[5E0,2.00001E0,-9.799633E-2,2.00001E0,2.00001E0,1.982384E-2,8E0,1.0851574E-1,4.541809E-1,3.300586E-2,9.104139E-2,1.0331177E-1,2.00001E0,7.475332E-1,4E0,8.602955E-2,2.5192661E-2,2.0913098E-2,-1.0886042E-2],"split_indices":[15247,7983,0,12078,9744,0,15248,0,5984,0,0,0,7992,12507,15247,0,0,0,0],"split_type":[0,0,0,0,0,0,0,0,0,0,0,0,0,0,0,0,0,0,0],"sum_hessian":[2.1038696E2,1.6870839E2,4.167858E1,7.9815516E0,1.6072684E2,1.007065E0,6.974487E0,2.477962E0,1.5824887E2,1.7393336E0,5.2351527E0,2.8287697E0,1.554201E2,5.729495E0,1.4969061E2,4.588353E0,1.141142E0,1.0334998E2,4.6340622E1],"tree_param":{"num_deleted":"0","num_feature":"15251","num_nodes":"19","size_leaf_vector":"1"}},{"base_weights":[-2.1135828E-2,1.9957812E-1,-9.773051E-2,-9.37611E-2,2.1339136E-1,-9.419214E-2,2.270394E-1,8.141907E-2,1.956186E-1,2.1189785E-1,-8.495218E-2,-8.243056E-2,2.274721E-2],"categories":[],"categories_nodes":[],"categories_segments":[],"categories_sizes":[],"default_left":[1,0,0,0,0,0,0,0,1,0,0,0,0],"id":28,"left_children":[1,3,-1,-1,5,-1,7,-1,9,11,-1,-1,-1],"loss_changes":[4.367983E1,2.8428006E0,0E0,0E0,2.8475895E0,0E0,2.9011736E0,0E0,2.8814874E0,2.723506E0,0E0,0E0,0E0],"parents":[2147483647,0,0,1,1,4,4,6,6,8,8,9,9],"right_children":[2,4,-1,-1,6,-1,8,-1,10,12,-1,-1,-1],"split_conditions":[5E0,2.00001E0,-9.773051E-2,-9.37611E-2,1E0,-9.419214E-2,5.868766E-1,8.141907E-2,4.261103E-1,2.00001E0,-8.495218E-2,-8.243056E-2,2.274721E-2],"split_indices":[15247,2237,0,0,2838,0,6096,0,13883,4979,0,0,0],"split_type":[0,0,0,0,0,0,0,0,0,0,0,0,0],"sum_hessian":[2.0505003E2,1.6723761E2,3.7812428E1,1.2044259E0,1.6603319E2,1.1443955E0,1.648888E2,7.110195E0,1.577786E2,1.5614372E2,1.6348624E0,1.5431874E0,1.5460054E2],"tree_param":{"num_deleted":"0","num_feature":"15251","num_nodes":"13","size_leaf_vector":"1"}},{"base_weights":[-2.196194E-2,1.7984928E-1,-9.744578E-2,7.4703075E-2,1.4881574E-1,9.1534294E-2,1.2506242E-1,1.0558261E-1,1.0453418E-1,8.27614E-2,7.710137E-2,7.6992825E-2,4.639023E-3],"categories":[],"categories_nodes":[],"categories_segments":[],"categories_sizes":[],"default_left":[1,0,0,0,0,0,0,0,0,0,0,0,0],"id":29,"left_children":[1,3,-1,-1,5,-1,7,-1,9,-1,11,-1,-1],"loss_changes":[3.8828423E1,2.8242865E0,0E0,0E0,2.7872448E0,0E0,2.8652875E0,0E0,2.9807596E0,0E0,3.134177E0,0E0,0E0],"parents":[2147483647,0,0,1,1,4,4,6,6,8,8,10,10],"right_children":[2,4,-1,-1,6,-1,8,-1,10,-1,12,-1,-1],"split_conditions":[5E0,2.00001E0,-9.744578E-2,7.4703075E-2,2.00001E0,9.1534294E-2,2.00001E0,1.0558261E-1,6.031409E-1,8.27614E-2,7.059243E-1,7.6992825E-2,4.639023E-3],"split_indices":[15247,7983,0,0,1264,0,823,0,7984,0,5984,0,0],"split_type":[0,0,0,0,0,0,0,0,0,0,0,0,0],"sum_hessian":[2.000836E2,1.657717E2,3.43119E1,7.402835E0,1.5836887E2,3.6318717E0,1.54737E2,2.2508128E0,1.5248618E2,4.5075107E0,1.4797867E2,5.259402E0,1.4271927E2],"tree_param":{"num_deleted":"0","num_feature":"15251","num_nodes":"13","size_leaf_vector":"1"}},{"base_weights":[-1.9050254E-2,1.6606556E-1,-9.7140044E-2,1.0245941E-1,1.4700678E-1,7.1755433E-1,1.1716292E-1,2.692515E-2,7.852518E-2,8.907332E-2,9.411678E-2,7.4775285E-1,6.509078E-2,8.141934E-2,2.2736741E-2,5.127733E-2,1.5899697E-3],"categories":[],"categories_nodes":[],"categories_segments":[],"categories_sizes":[],"default_left":[1,0,0,0,0,0,0,0,0,0,0,1,0,0,0,0,0],"id":30,"left_children":[1,3,-1,-1,5,7,9,-1,-1,-1,11,13,15,-1,-1,-1,-1],"loss_changes":[3.482211E1,2.556786E0,0E0,0E0,2.6920357E0,2.860117E-2,2.6996093E0,0E0,0E0,0E0,2.8489976E0,3.6108017E-2,3.2363884E0,0E0,0E0,0E0,0E0],"parents":[2147483647,0,0,1,1,4,4,5,5,6,6,10,10,11,11,12,12],"right_children":[2,4,-1,-1,6,8,10,-1,-1,-1,12,14,16,-1,-1,-1,-1],"split_conditions":[5E0,2.00001E0,-9.7140044E-2,1.0245941E-1,2.00001E0,8E0,2.00001E0,2.692515E-2,7.852518E-2,8.907332E-2,2.00001E0,7.475332E-1,2.00001E0,8.141934E-2,2.2736741E-2,5.127733E-2,1.5899697E-3],"split_indices":[15247,9744,0,0,7983,15248,1264,0,0,0,7992,12507,6096,0,0,0,0],"split_type":[0,0,0,0,0,0,0,0,0,0,0,0,0,0,0,0,0],"sum_hessian":[1.9560669E2,1.6446413E2,3.1142565E1,2.425913E0,1.6203822E2,6.90905E0,1.5512917E2,1.5594444E0,5.3496056E0,3.3986776E0,1.5173048E2,5.3985734E0,1.4633192E2,4.2866726E0,1.1119006E0,1.3554039E1,1.3277788E2],"tree_param":{"num_deleted":"0","num_feature":"15251","num_nodes":"17","size_leaf_vector":"1"}},{"base_weights":[-1.6153187E-2,1.5380862E-1,-9.681112E-2,-9.069223E-2,1.6687326E-1,7.579168E-2,1.3756596E-1,9.5679194E-2,1.1761864E-1,1.3448548E-1,-9.789336E-2,9.723468E-3,6.954142E-2],"categories":[],"categories_nodes":[],"categories_segments":[],"categories_sizes":[],"default_left":[1,0,0,0,0,0,0,0,1,1,0,0,0],"id":31,"left_children":[1,3,-1,-1,5,-1,7,-1,9,11,-1,-1,-1],"loss_changes":[3.1266872E1,2.424819E0,0E0,0E0,2.717527E0,0E0,2.4437237E0,0E0,2.9771771E0,3.1167705E0,0E0,0E0,0E0],"parents":[2147483647,0,0,1,1,4,4,6,6,8,8,9,9],"right_children":[2,4,-1,-1,6,-1,8,-1,10,12,-1,-1,-1],"split_conditions":[5E0,1E0,-9.681112E-2,-9.069223E-2,5.868766E-1,7.579168E-2,4.541809E-1,9.5679194E-2,4.261103E-1,3.9883322E-1,-9.789336E-2,9.723468E-3,6.954142E-2],"split_indices":[15247,2838,0,0,6096,0,5984,0,13883,7984,0,0,0],"split_type":[0,0,0,0,0,0,0,0,0,0,0,0,0],"sum_hessian":[1.9132779E2,1.6305458E2,2.8273205E1,1.1514202E0,1.6190317E2,6.474295E0,1.5542886E2,2.5781856E0,1.528507E2,1.5139926E2,1.4514219E0,1.4307137E2,8.327904E0],"tree_param":{"num_deleted":"0","num_feature":"15251","num_nodes":"13","size_leaf_vector":"1"}},{"base_weights":[-1.5496181E-2,1.400836E-1,-9.645678E-2,6.919755E-1,1.1251839E-1,2.519692E-2,7.6038316E-2,1.0033869E-1,9.350119E-2,9.765271E-2,7.391717E-2,8.646366E-2,5.131381E-2,7.1148254E-2,2.2716294E-3],"categories":[],"categories_nodes":[],"categories_segments":[],"categories_sizes":[],"default_left":[1,0,0,0,0,0,0,0,0,0,0,0,0,0,0],"id":32,"left_children":[1,3,-1,5,7,-1,-1,-1,9,-1,11,-1,13,-1,-1],"loss_changes":[2.796856E1,2.3992143E0,0E0,3.5707712E-2,2.5537567E0,0E0,0E0,0E0,2.5928884E0,0E0,2.6696186E0,0E0,2.7910233E0,0E0,0E0],"parents":[2147483647,0,0,1,1,3,3,4,4,8,8,10,10,12,12],"right_children":[2,4,-1,6,8,-1,-1,-1,10,-1,12,-1,14,-1,-1],"split_conditions":[5E0,2.00001E0,-9.645678E-2,8E0,2.00001E0,2.519692E-2,7.6038316E-2,1.0033869E-1,2.00001E0,9.765271E-2,2.00001E0,8.646366E-2,2.00001E0,7.1148254E-2,2.2716294E-3],"split_indices":[15247,7983,0,15248,823,0,0,0,9744,0,1264,0,7992,0,0],"split_type":[0,0,0,0,0,0,0,0,0,0,0,0,0,0,0],"sum_hessian":[1.8750148E2,1.61826E2,2.5675478E1,6.5515747E0,1.5527443E2,1.5116708E0,5.039904E0,2.1634762E0,1.5311096E2,2.2618678E0,1.5084909E2,3.157004E0,1.476921E2,5.140702E0,1.4255139E2],"tree_param":{"num_deleted":"0","num_feature":"15251","num_nodes":"15","size_leaf_vector":"1"}},{"base_weights":[-1.2661069E-2,1.2994553E-1,-9.607472E-2,-9.036143E-2,1.4321251E-1,-8.8890314E-2,1.5645443E-1,-8.0085896E-2,1.7059232E-1,-8.534371E-2,1.8365398E-1,-6.321679E-2,2.0064626E-2],"categories":[],"categories_nodes":[],"categories_segments":[],"categories_sizes":[],"default_left":[1,0,0,0,0,0,0,0,0,0,0,0,0],"id":33,"left_children":[1,3,-1,-1,5,-1,7,-1,9,-1,11,-1,-1],"loss_changes":[2.5154104E1,2.3480353E0,0E0,0E0,2.3341887E0,0E0,2.2943776E0,0E0,2.2691603E0,0E0,2.300033E0,0E0,0E0],"parents":[2147483647,0,0,1,1,4,4,6,6,8,8,10,10],"right_children":[2,4,-1,-1,6,-1,8,-1,10,-1,12,-1,-1],"split_conditions":[5E0,2.00001E0,-9.607472E-2,-9.036143E-2,4.881297E-1,-8.8890314E-2,2.00001E0,-8.0085896E-2,1E0,-8.534371E-2,2.00001E0,-6.321679E-2,2.0064626E-2],"split_indices":[15247,2237,0,0,7182,0,4979,0,2838,0,10319,0,0],"split_type":[0,0,0,0,0,0,0,0,0,0,0,0,0],"sum_hessian":[1.8412308E2,1.6079933E2,2.3323732E1,1.187372E0,1.5961197E2,1.1841967E0,1.5842776E2,1.4958162E0,1.5693196E2,1.1661625E0,1.557658E2,2.4394865E0,1.5332631E2],"tree_param":{"num_deleted":"0","num_feature":"15251","num_nodes":"13","size_leaf_vector":"1"}},{"base_weights":[-1.4782489E-2,1.153749E-1,-9.566263E-2,9.201845E-2,9.7155534E-2,6.598307E-1,7.021929E-2,2.305115E-2,7.294464E-2,1.5900986E-1,-1.1673366E-1,-8.1683874E-2,1.7926139E-1,-2.739505E-1,3.8009727E-1,-3.8499963E-2,2.1741321E-2,5.542434E-2,-3.826123E-2,5.4810878E-2,-1.2027116E-3],"categories":[],"categories_nodes":[],"categories_segments":[],"categories_sizes":[],"default_left":[1,0,0,0,0,0,1,0,0,0,0,0,0,0,0,0,0,0,0,0,0],"id":34,"left_children":[1,3,-1,-1,5,7,9,-1,-1,11,13,-1,15,17,19,-1,-1,-1,-1,-1,-1],"loss_changes":[2.2410755E1,2.2672372E0,0E0,0E0,2.3525984E0,4.4408083E-2,2.5444832E0,0E0,0E0,2.193657E0,3.9764469E0,0E0,2.2861023E0,3.6533606E0,8.192706E-1,0E0,0E0,0E0,0E0,0E0,0E0],"parents":[2147483647,0,0,1,1,4,4,5,5,6,6,9,9,10,10,12,12,13,13,14,14],"right_children":[2,4,-1,-1,6,8,10,-1,-1,12,14,-1,16,18,20,-1,-1,-1,-1,-1,-1],"split_conditions":[5E0,4.541809E-1,-9.566263E-2,9.201845E-2,2.00001E0,8E0,4E0,2.305115E-2,7.294464E-2,2.00001E0,2.5E1,-8.1683874E-2,4E0,8.608032E-1,2.8E1,-3.8499963E-2,2.1741321E-2,5.542434E-2,-3.826123E-2,5.4810878E-2,-1.2027116E-3],"split_indices":[15247,5984,0,0,7983,15248,15247,0,0,2495,15248,0,15248,7984,15248,0,0,0,0,0,0],"split_type":[0,0,0,0,0,0,0,0,0,0,0,0,0,0,0,0,0,0,0,0,0],"sum_hessian":[1.8091339E2,1.5971869E2,2.1194704E1,2.439779E0,1.5727892E2,6.1118364E0,1.5116707E2,1.4543124E0,4.657524E0,1.0259198E2,4.8575092E1,1.286073E0,1.0130591E2,3.723962E1,1.1335474E1,5.840108E0,9.5465805E1,3.8436477E0,3.339597E1,7.6569486E0,3.6785257E0],"tree_param":{"num_deleted":"0","num_feature":"15251","num_nodes":"21","size_leaf_vector":"1"}},{"base_weights":[-1.351323E-2,1.05878495E-1,-9.5218115E-2,9.243559E-2,8.86869E-2,9.395049E-2,7.146877E-2,7.510028E-2,4.903909E-2,8.339917E-2,2.8206168E-2,6.3295715E-2,-6.428846E-5],"categories":[],"categories_nodes":[],"categories_segments":[],"categories_sizes":[],"default_left":[1,0,0,0,0,0,0,0,0,0,0,0,0],"id":35,"left_children":[1,3,-1,-1,5,-1,7,-1,9,-1,11,-1,-1],"loss_changes":[2.0130243E1,2.1617231E0,0E0,0E0,2.23696E0,0E0,2.32937E0,0E0,2.4515483E0,0E0,2.5907915E0,0E0,0E0],"parents":[2147483647,0,0,1,1,4,4,6,6,8,8,10,10],"right_children":[2,4,-1,-1,6,-1,8,-1,10,-1,12,-1,-1],"split_conditions":[5E0,2.00001E0,-9.5218115E-2,9.243559E-2,2.00001E0,9.395049E-2,6.031409E-1,7.510028E-2,2.00001E0,8.339917E-2,2.00001E0,6.3295715E-2,-6.428846E-5],"split_indices":[15247,9744,0,0,823,0,7984,0,1264,0,7983,0,0],"split_type":[0,0,0,0,0,0,0,0,0,0,0,0,0],"sum_hessian":[1.7772377E2,1.5845647E2,1.9267305E1,2.1742527E0,1.5628221E2,2.0374737E0,1.5424474E2,3.8906384E0,1.503541E2,2.8781312E0,1.4747597E2,5.7614174E0,1.4171455E2],"tree_param":{"num_deleted":"0","num_feature":"15251","num_nodes":"13","size_leaf_vector":"1"}},{"base_weights":[-1.0855454E-2,9.8593324E-2,-9.473882E-2,8.881807E-2,8.120076E-2,-7.716205E-2,9.772954E-2,-9.4117105E-2,1.11728385E-1,-5.404838E-1,1.3222587E-1,2.364195E-2,-9.4758295E-2,3.4427106E-2,4.7783423E-3],"categories":[],"categories_nodes":[],"categories_segments":[],"categories_sizes":[],"default_left":[1,0,0,0,0,0,0,0,0,0,1,0,0,0,0],"id":36,"left_children":[1,3,-1,-1,5,-1,7,-1,9,11,13,-1,-1,-1,-1],"loss_changes":[1.8145565E1,2.1058166E0,0E0,0E0,2.2782726E0,0E0,2.347619E0,0E0,2.1173449E0,1.7609844E0,2.6546261E0,0E0,0E0,0E0,0E0],"parents":[2147483647,0,0,1,1,4,4,6,6,8,8,9,9,10,10],"right_children":[2,4,-1,-1,6,-1,8,-1,10,12,14,-1,-1,-1,-1],"split_conditions":[5E0,4.541809E-1,-9.473882E-2,8.881807E-2,6.343211E-1,-7.716205E-2,6.7050666E-1,-9.4117105E-2,2.00001E0,2E0,1E1,2.364195E-2,-9.4758295E-2,3.4427106E-2,4.7783423E-3],"split_indices":[15247,5984,0,0,7182,0,10319,0,9226,15247,15248,0,0,0,0],"split_type":[0,0,0,0,0,0,0,0,0,0,0,0,0,0,0],"sum_hessian":[1.7511458E2,1.5759215E2,1.7522429E1,2.3174586E0,1.5527469E2,2.0836363E0,1.5319106E2,1.156165E0,1.5203488E2,3.8595347E0,1.4817535E2,1.4711903E0,2.3883445E0,4.1325363E1,1.0684998E2],"tree_param":{"num_deleted":"0","num_feature":"15251","num_nodes":"15","size_leaf_vector":"1"}},{"base_weights":[-1.1442748E-2,8.8558756E-2,-9.422235E-2,6.7437106E-1,6.5461524E-2,3.1076008E-1,8.50449E-2,8.828048E-2,4.848541E-2,6.1372846E-2,-8.655079E-3,1.1616764E-2,4.531111E-1,7.2043425E-1,-1.2902171E-2,7.4155666E-2,3.3823782E-1,2.2322483E-2,8.005485E-2,1.9571895E-2,-1.021612E-2,-3.128456E-2,4.9317714E-2],"categories":[],"categories_nodes":[],"categories_segments":[],"categories_sizes":[],"default_left":[1,0,0,0,0,0,0,0,1,0,0,0,0,0,1,0,0,0,0,0,0,0,0],"id":37,"left_children":[1,3,-1,5,7,9,-1,-1,11,-1,-1,13,15,17,19,-1,21,-1,-1,-1,-1,-1,-1],"loss_changes":[1.6256454E1,2.0911536E0,0E0,1.1208773E-1,2.0791967E0,4.7367275E-1,0E0,0E0,2.2455614E0,0E0,0E0,2.4303625E0,1.6579556E-1,7.529974E-3,2.5456235E0,0E0,1.2468954E0,0E0,0E0,0E0,0E0,0E0,0E0],"parents":[2147483647,0,0,1,1,3,3,4,4,5,5,8,8,11,11,12,12,13,13,14,14,16,16],"right_children":[2,4,-1,6,8,10,-1,-1,12,-1,-1,14,16,18,20,-1,22,-1,-1,-1,-1,-1,-1],"split_conditions":[5E0,2.00001E0,-9.422235E-2,1.8E1,2.00001E0,4E0,8.50449E-2,8.828048E-2,3.108137E-1,6.1372846E-2,-8.655079E-3,6.031409E-1,4.3022382E-1,4.214814E-1,1E1,7.4155666E-2,4.8610213E-1,2.2322483E-2,8.005485E-2,1.9571895E-2,-1.021612E-2,-3.128456E-2,4.9317714E-2],"split_indices":[15247,7992,0,15248,9744,15247,0,0,6096,0,0,7984,6096,7984,15248,0,6096,0,0,0,0,0,0],"split_type":[0,0,0,0,0,0,0,0,0,0,0,0,0,0,0,0,0,0,0,0,0,0,0],"sum_hessian":[1.7275487E2,1.5681209E2,1.5942771E1,4.878641E0,1.5193346E2,2.493768E0,2.3848734E0,2.053664E0,1.4987979E2,1.1058211E0,1.3879468E0,1.3830632E2,1.1573471E1,3.6752684E0,1.3463104E2,1.7425404E0,9.830931E0,1.0354337E0,2.6398346E0,3.9984455E1,9.464659E1,1.6938622E0,8.137069E0],"tree_param":{"num_deleted":"0","num_feature":"15251","num_nodes":"23","size_leaf_vector":"1"}},{"base_weights":[-8.684096E-3,8.308326E-2,-9.366636E-2,8.985824E-2,6.707163E-2,8.6168304E-2,4.992574E-2,6.507489E-1,2.6442653E-2,2.9872027E-1,8.243414E-2,7.690258E-3,8.4379084E-2,5.957023E-2,-8.128381E-3,6.051169E-2,-1.9768395E-3],"categories":[],"categories_nodes":[],"categories_segments":[],"categories_sizes":[],"default_left":[1,0,0,0,0,0,0,0,1,0,0,0,0,0,0,0,0],"id":38,"left_children":[1,3,-1,-1,5,-1,7,9,11,13,-1,15,-1,-1,-1,-1,-1],"loss_changes":[1.4680407E1,1.989273E0,0E0,0E0,2.0690422E0,0E0,2.1387973E0,1.0241246E-1,2.2635226E0,4.380647E-1,0E0,2.4035885E0,0E0,0E0,0E0,0E0,0E0],"parents":[2147483647,0,0,1,1,4,4,6,6,7,7,8,8,9,9,11,11],"right_children":[2,4,-1,-1,6,-1,8,10,12,14,-1,16,-1,-1,-1,-1,-1],"split_conditions":[5E0,2.00001E0,-9.366636E-2,8.985824E-2,4.541809E-1,8.6168304E-2,2.00001E0,1.8E1,6.686074E-1,4E0,8.243414E-2,2.00001E0,8.4379084E-2,5.957023E-2,-8.128381E-3,6.051169E-2,-1.9768395E-3],"split_indices":[15247,823,0,0,5984,0,7992,15248,7792,15247,0,7983,0,0,0,0,0],"split_type":[0,0,0,0,0,0,0,0,0,0,0,0,0,0,0,0,0],"sum_hessian":[1.7047595E2,1.559633E2,1.4512651E1,1.9418324E0,1.5402147E2,2.2128513E0,1.5180861E2,4.705494E0,1.4710312E2,2.452624E0,2.2528698E0,1.447906E2,2.3125176E0,1.0580852E0,1.3945388E0,5.4379525E0,1.3935265E2],"tree_param":{"num_deleted":"0","num_feature":"15251","num_nodes":"17","size_leaf_vector":"1"}},{"base_weights":[-5.997307E-3,7.812479E-2,-9.3068585E-2,8.062082E-2,6.0383476E-2,6.991359E-1,4.0837675E-2,2.1394994E-2,7.807402E-2,4.1590598E-1,5.0286907E-3,5.047322E-1,-3.2178666E-2,6.234699E-1,-2.1122377E-2,2.0573111E-2,6.1441578E-2,2.3844026E-2,-3.0001936E-2,9.751416E-2,7.046704E-3,7.397743E-2,-5.1554046E-3],"categories":[],"categories_nodes":[],"categories_segments":[],"categories_sizes":[],"default_left":[1,0,0,0,0,0,0,0,0,0,0,0,0,0,0,0,0,0,0,0,0,0,0],"id":39,"left_children":[1,3,-1,-1,5,7,9,-1,-1,11,13,15,17,19,21,-1,-1,-1,-1,-1,-1,-1,-1],"loss_changes":[1.32634E1,1.9710087E0,0E0,0E0,1.8906168E0,1.1213303E-2,2.0154412E0,0E0,0E0,5.368285E-1,2.247248E0,2.3354578E-1,2.9651853E-1,1.0275397E0,3.1293828E0,0E0,0E0,0E0,0E0,0E0,0E0,0E0,0E0],"parents":[2147483647,0,0,1,1,4,4,5,5,6,6,9,9,10,10,11,11,12,12,13,13,14,14],"right_children":[2,4,-1,-1,6,8,10,-1,-1,12,14,16,18,20,22,-1,-1,-1,-1,-1,-1,-1,-1],"split_conditions":[5E0,2.00001E0,-9.3068585E-2,8.062082E-2,6.031409E-1,4.214814E-1,2.00001E0,2.1394994E-2,7.807402E-2,2.4E1,7.059243E-1,1.1E1,4.6713173E-1,4E0,7.520943E-1,2.0573111E-2,6.1441578E-2,2.3844026E-2,-3.0001936E-2,9.751416E-2,7.046704E-3,7.397743E-2,-5.1554046E-3],"split_indices":[15247,1264,0,0,7984,7984,6096,0,0,15248,5984,15248,6096,15247,8983,0,0,0,0,0,0,0,0],"split_type":[0,0,0,0,0,0,0,0,0,0,0,0,0,0,0,0,0,0,0,0,0,0,0],"sum_hessian":[1.6857506E2,1.553572E2,1.3217867E1,2.6383867E0,1.527188E2,3.5020921E0,1.492167E2,1.0256704E0,2.4764218E0,1.2079524E1,1.3713719E2,9.975589E0,2.1039357E0,4.6369853E0,1.325002E2,3.4490476E0,6.5265408E0,1.1011412E0,1.0027946E0,2.3678434E0,2.2691422E0,4.1990905E0,1.2830112E2],"tree_param":{"num_deleted":"0","num_feature":"15251","num_nodes":"23","size_leaf_vector":"1"}},{"base_weights":[-3.5968642E-3,7.3582426E-2,-9.2426844E-2,-8.554184E-2,8.602494E-2,-8.23183E-2,9.837454E-2,3.2220352E-2,2.9871356E-1,1.1202928E-1,-2.917568E-1,-5.844522E-1,3.7374154E-1,-3.903273E-2,1.496277E-2,5.6524124E-2,-3.8830843E-2,-9.269229E-3,-7.990465E-2,4.2098954E-2,-5.445084E-2],"categories":[],"categories_nodes":[],"categories_segments":[],"categories_sizes":[],"default_left":[1,0,0,0,0,0,0,0,0,0,0,0,1,0,0,0,0,0,0,0,0],"id":40,"left_children":[1,3,-1,-1,5,-1,7,9,11,13,15,17,19,-1,-1,-1,-1,-1,-1,-1,-1],"loss_changes":[1.1985122E1,1.8729583E0,0E0,0E0,1.8159646E0,0E0,2.0226417E0,3.042263E0,2.7327096E0,1.8359936E0,2.1460607E0,2.8063273E-1,1.773027E0,0E0,0E0,0E0,0E0,0E0,0E0,0E0,0E0],"parents":[2147483647,0,0,1,1,4,4,6,6,7,7,8,8,9,9,10,10,11,11,12,12],"right_children":[2,4,-1,-1,6,-1,8,10,12,14,16,18,20,-1,-1,-1,-1,-1,-1,-1,-1],"split_conditions":[5E0,2.00001E0,-9.2426844E-2,-8.554184E-2,4.881297E-1,-8.23183E-2,2E1,4E0,4.938421E-1,4E0,1.6835734E0,4.1824847E-1,5.156253E-1,-3.903273E-2,1.496277E-2,5.6524124E-2,-3.8830843E-2,-9.269229E-3,-7.990465E-2,4.2098954E-2,-5.445084E-2],"split_indices":[15247,2237,0,0,7182,0,15248,15247,10395,15248,12507,10395,10390,0,0,0,0,0,0,0,0],"split_type":[0,0,0,0,0,0,0,0,0,0,0,0,0,0,0,0,0,0,0,0,0],"sum_hessian":[1.6671251E2,1.5466696E2,1.2045552E1,1.1487362E0,1.5351822E2,1.1774135E0,1.523408E2,1.1539645E2,3.6944366E1,9.311307E1,2.2283379E1,2.3611476E0,3.4583218E1,5.83044E0,8.728263E1,1.7647815E0,2.0518597E1,1.1523614E0,1.2087864E0,3.340587E1,1.1773486E0],"tree_param":{"num_deleted":"0","num_feature":"15251","num_nodes":"21","size_leaf_vector":"1"}},{"base_weights":[-5.6893565E-3,6.492351E-2,-9.173911E-2,8.623263E-2,4.963944E-2,8.475463E-2,3.3757795E-2,7.8284115E-2,1.614275E-2,6.202659E-1,-7.000151E-3,2.7866239E-2,7.943531E-2,-2.558584E-3,8.034571E-2],"categories":[],"categories_nodes":[],"categories_segments":[],"categories_sizes":[],"default_left":[1,0,0,0,0,0,0,0,0,0,1,0,0,0,0],"id":41,"left_children":[1,3,-1,-1,5,-1,7,-1,9,11,13,-1,-1,-1,-1],"loss_changes":[1.0733027E1,1.8439505E0,0E0,0E0,1.909704E0,0E0,1.9800386E0,0E0,2.0814867E0,1.0527825E-1,2.1907427E0,0E0,0E0,0E0,0E0],"parents":[2147483647,0,0,1,1,4,4,6,6,8,8,9,9,10,10],"right_children":[2,4,-1,-1,6,-1,8,-1,10,12,14,-1,-1,-1,-1],"split_conditions":[5E0,2.00001E0,-9.173911E-2,8.623263E-2,2.00001E0,8.475463E-2,2.00001E0,7.8284115E-2,2.00001E0,1.8E1,6.686074E-1,2.7866239E-2,7.943531E-2,-2.558584E-3,8.034571E-2],"split_indices":[15247,823,0,0,9744,0,1264,0,7992,15248,7792,0,0,0,0],"split_type":[0,0,0,0,0,0,0,0,0,0,0,0,0,0,0],"sum_hessian":[1.6479404E2,1.5380998E2,1.0984059E1,1.8504055E0,1.5195958E2,1.9436301E0,1.5001595E2,2.4485655E0,1.4756738E2,4.4925346E0,1.4307484E2,2.3945403E0,2.097994E0,1.4081407E2,2.2607675E0],"tree_param":{"num_deleted":"0","num_feature":"15251","num_nodes":"15","size_leaf_vector":"1"}},{"base_weights":[-3.225497E-3,6.1541412E-2,-9.100352E-2,8.177768E-2,4.6144575E-2,6.046372E-2,-7.818275E-2,3.015712E-2,5.9865284E-1,5.754155E-1,5.9295795E-3,7.937129E-2,3.511037E-1,1.304882E-2,6.591184E-2,7.627199E-2,-1.2412713E-3,5.2445617E-2,2.1901132E-4],"categories":[],"categories_nodes":[],"categories_segments":[],"categories_sizes":[],"default_left":[1,0,0,0,1,1,0,0,0,0,0,0,0,0,0,0,0,0,0],"id":42,"left_children":[1,3,-1,-1,5,7,-1,9,11,13,15,-1,17,-1,-1,-1,-1,-1,-1],"loss_changes":[9.7116995E0,1.7598295E0,0E0,0E0,1.8536437E0,2.4399533E0,0E0,1.8951477E0,1.06690645E-1,1.4130783E-1,1.9336151E0,0E0,3.200521E-1,0E0,0E0,0E0,0E0,0E0,0E0],"parents":[2147483647,0,0,1,1,4,4,5,5,7,7,8,8,9,9,10,10,12,12],"right_children":[2,4,-1,-1,6,8,-1,10,12,14,16,-1,18,-1,-1,-1,-1,-1,-1],"split_conditions":[5E0,4.541809E-1,-9.100352E-2,8.177768E-2,4.261103E-1,3.9883322E-1,-7.818275E-2,2.00001E0,6.031409E-1,8E0,2.00001E0,7.937129E-2,4E0,1.304882E-2,6.591184E-2,7.627199E-2,-1.2412713E-3,5.2445617E-2,2.1901132E-4],"split_indices":[15247,5984,0,0,13883,7984,0,7983,7984,15248,1264,0,15247,0,0,0,0,0,0],"split_type":[0,0,0,0,0,0,0,0,0,0,0,0,0,0,0,0,0,0,0],"sum_hessian":[1.6340468E2,1.5338185E2,1.0022831E1,2.0206723E0,1.5136118E2,1.4969922E2,1.6619598E0,1.4271846E2,6.9807525E0,5.103778E0,1.3761469E2,2.6703367E0,4.3104157E0,1.2133093E0,3.8904686E0,2.2961118E0,1.3531857E2,2.5435693E0,1.7668462E0],"tree_param":{"num_deleted":"0","num_feature":"15251","num_nodes":"19","size_leaf_vector":"1"}},{"base_weights":[-1.7886821E-3,5.7694864E-2,-9.021846E-2,-8.278838E-2,6.988666E-2,6.71882E-2,4.259874E-2,7.022819E-2,2.2908017E-2,8.31782E-2,6.9669243E-3,5.964623E-2,-1.5943734E-3],"categories":[],"categories_nodes":[],"categories_segments":[],"categories_sizes":[],"default_left":[1,0,0,0,0,0,0,0,0,0,0,0,0],"id":43,"left_children":[1,3,-1,-1,5,-1,7,-1,9,-1,11,-1,-1],"loss_changes":[8.774459E0,1.7173743E0,0E0,0E0,2.477173E0,0E0,1.8932899E0,0E0,1.8479687E0,0E0,1.9272642E0,0E0,0E0],"parents":[2147483647,0,0,1,1,4,4,6,6,8,8,10,10],"right_children":[2,4,-1,-1,6,-1,8,-1,10,-1,12,-1,-1],"split_conditions":[5E0,1E0,-9.021846E-2,-8.278838E-2,5.868766E-1,6.71882E-2,2.00001E0,7.022819E-2,2.00001E0,8.31782E-2,2.00001E0,5.964623E-2,-1.5943734E-3],"split_indices":[15247,2838,0,0,6096,0,3156,0,823,0,7992,0,0],"split_type":[0,0,0,0,0,0,0,0,0,0,0,0,0],"sum_hessian":[1.6185683E2,1.5270451E2,9.152312E0,1.1651652E0,1.5153935E2,5.546945E0,1.459924E2,3.2266548E0,1.4276575E2,1.7700953E0,1.4099565E2,4.338219E0,1.3665744E2],"tree_param":{"num_deleted":"0","num_feature":"15251","num_nodes":"13","size_leaf_vector":"1"}},{"base_weights":[-1.0651845E-3,5.351588E-2,-8.938259E-2,8.193432E-2,3.8727157E-2,2.2521714E-2,7.66726E-2,-7.689112E-2,3.8680457E-2,8.853191E-2,2.4703495E-2,8.0308085E-4,7.617622E-2],"categories":[],"categories_nodes":[],"categories_segments":[],"categories_sizes":[],"default_left":[1,0,0,0,1,0,0,0,0,0,1,0,0],"id":44,"left_children":[1,3,-1,-1,5,7,-1,-1,9,-1,11,-1,-1],"loss_changes":[7.9195294E0,1.703129E0,0E0,0E0,1.7680297E0,1.9360417E0,0E0,0E0,1.7180287E0,0E0,1.7840251E0,0E0,0E0],"parents":[2147483647,0,0,1,1,4,4,5,5,8,8,10,10],"right_children":[2,4,-1,-1,6,8,-1,-1,10,-1,12,-1,-1],"split_conditions":[5E0,2.00001E0,-8.938259E-2,8.193432E-2,6.6366607E-1,6.343211E-1,7.66726E-2,-7.689112E-2,2.00001E0,8.853191E-2,6.686074E-1,8.0308085E-4,7.617622E-2],"split_indices":[15247,9744,0,0,4894,7182,0,0,2881,0,7792,0,0],"split_type":[0,0,0,0,0,0,0,0,0,0,0,0,0],"sum_hessian":[1.6054414E2,1.5218028E2,8.363852E0,1.8523803E0,1.5032791E2,1.4806293E2,2.2649832E0,2.03043E0,1.460325E2,1.3591992E0,1.446733E2,1.4246162E2,2.2116675E0],"tree_param":{"num_deleted":"0","num_feature":"15251","num_nodes":"13","size_leaf_vector":"1"}},{"base_weights":[-1.1999879E-4,4.9926013E-2,-8.849488E-2,-7.7449106E-2,6.285571E-2,9.355563E-2,4.8032418E-2,-7.191022E-2,6.350537E-2,-7.980084E-2,7.635095E-2,-8.186779E-2,8.886096E-3],"categories":[],"categories_nodes":[],"categories_segments":[],"categories_sizes":[],"default_left":[1,0,0,0,0,0,0,0,0,0,0,0,0],"id":45,"left_children":[1,3,-1,-1,5,-1,7,-1,9,-1,11,-1,-1],"loss_changes":[7.155001E0,1.6788347E0,0E0,0E0,1.9148302E0,0E0,1.8263505E0,0E0,1.6984653E0,0E0,1.715425E0,0E0,0E0],"parents":[2147483647,0,0,1,1,4,4,6,6,8,8,10,10],"right_children":[2,4,-1,-1,6,-1,8,-1,10,-1,12,-1,-1],"split_conditions":[5E0,2.00001E0,-8.849488E-2,-7.7449106E-2,7.927096E-1,9.355563E-2,6.343211E-1,-7.191022E-2,2.00001E0,-7.980084E-2,2.00001E0,-8.186779E-2,8.886096E-3],"split_indices":[15247,4979,0,0,5695,0,7182,0,2495,0,2237,0,0],"split_type":[0,0,0,0,0,0,0,0,0,0,0,0,0],"sum_hessian":[1.595798E2,1.5193019E2,7.6496124E0,1.4365017E0,1.5049368E2,1.4761058E0,1.4901758E2,2.047146E0,1.4697043E2,1.2612188E0,1.4570921E2,1.1202337E0,1.4458897E2],"tree_param":{"num_deleted":"0","num_feature":"15251","num_nodes":"13","size_leaf_vector":"1"}},{"base_weights":[-2.1595163E-3,4.3736417E-2,-8.7554716E-2,7.956311E-2,2.8846148E-2,-8.625339E-2,4.166941E-2,1.0786009E-2,4.2411754E-1,2.7097568E-2,-9.07786E-2,2.7787802E-1,6.256268E-1,-5.0187466E-4,5.7260044E-2,-2.7983222E-2,4.04098E-2,7.248827E-2,2.1646885E-2],"categories":[],"categories_nodes":[],"categories_segments":[],"categories_sizes":[],"default_left":[1,0,0,0,0,0,1,1,0,1,0,0,0,0,0,0,0,0,0],"id":46,"left_children":[1,3,-1,-1,5,-1,7,9,11,13,-1,15,17,-1,-1,-1,-1,-1,-1],"loss_changes":[6.4252295E0,1.6825514E0,0E0,0E0,1.7552104E0,0E0,1.758059E0,2.1089091E0,1.5397024E-1,2.4144804E0,0E0,6.9349784E-1,6.1929226E-4,0E0,0E0,0E0,0E0,0E0,0E0],"parents":[2147483647,0,0,1,1,4,4,6,6,7,7,8,8,9,9,11,11,12,12],"right_children":[2,4,-1,-1,6,-1,8,10,12,14,-1,16,18,-1,-1,-1,-1,-1,-1],"split_conditions":[5E0,4.541809E-1,-8.7554716E-2,7.956311E-2,6.7050666E-1,-8.625339E-2,3.108137E-1,4.261103E-1,1.7E1,3.9883322E-1,-9.07786E-2,4.6713173E-1,2.4E1,-5.0187466E-4,5.7260044E-2,-2.7983222E-2,4.04098E-2,7.248827E-2,2.1646885E-2],"split_indices":[15247,5984,0,0,10319,0,6096,13883,15248,7984,0,6096,15248,0,0,0,0,0,0],"split_type":[0,0,0,0,0,0,0,0,0,0,0,0,0,0,0,0,0,0,0],"sum_hessian":[1.5833507E2,1.5133257E2,7.002502E0,1.9205405E0,1.4941203E2,1.1792023E0,1.4823282E2,1.381085E2,1.0124317E1,1.366524E2,1.4561074E0,7.2452617E0,2.8790553E0,1.2999007E2,6.6623263E0,1.1125175E0,6.1327443E0,1.6959873E0,1.1830679E0],"tree_param":{"num_deleted":"0","num_feature":"15251","num_nodes":"19","size_leaf_vector":"1"}},{"base_weights":[-2.1254367E-3,4.0103093E-2,-8.656183E-2,5.540606E-1,1.9175394E-2,1.2046879E-2,6.3819475E-2,7.4115835E-2,3.365681E-3,7.996925E-2,-1.1595373E-2,-2.8349139E-2,7.270378E-2,6.419889E-2,-4.7809724E-3],"categories":[],"categories_nodes":[],"categories_segments":[],"categories_sizes":[],"default_left":[1,0,0,0,0,0,0,0,0,0,1,0,0,0,0],"id":47,"left_children":[1,3,-1,5,7,-1,-1,-1,9,-1,11,13,-1,-1,-1],"loss_changes":[5.8000946E0,1.6210029E0,0E0,1.383239E-1,1.6730857E0,0E0,0E0,0E0,1.7326761E0,0E0,1.7898865E0,1.8669907E0,0E0,0E0,0E0],"parents":[2147483647,0,0,1,1,3,3,4,4,8,8,10,10,11,11],"right_children":[2,4,-1,6,8,-1,-1,-1,10,-1,12,14,-1,-1,-1],"split_conditions":[5E0,2.00001E0,-8.656183E-2,8E0,2.00001E0,1.2046879E-2,6.3819475E-2,7.4115835E-2,2.00001E0,7.996925E-2,6.6366607E-1,6.031409E-1,7.270378E-2,6.419889E-2,-4.7809724E-3],"split_indices":[15247,7983,0,15248,1264,0,0,0,823,0,4894,7984,0,0,0],"split_type":[0,0,0,0,0,0,0,0,0,0,0,0,0,0,0],"sum_hessian":[1.5711143E2,1.5069534E2,6.4160957E0,4.8993206E0,1.4579602E2,1.1913701E0,3.7079506E0,2.1410413E0,1.4365498E2,1.681892E0,1.4197308E2,1.3976456E2,2.2085366E0,3.0405564E0,1.36724E2],"tree_param":{"num_deleted":"0","num_feature":"15251","num_nodes":"15","size_leaf_vector":"1"}},{"base_weights":[-1.8420581E-4,3.8729824E-2,-8.55165E-2,7.907066E-2,2.4599787E-2,7.7237144E-2,1.0118518E-2,8.473337E-2,-3.2174212E-3,5.652931E-1,-2.3789274E-2,2.2554494E-2,7.5259104E-2,1.6358139E-2,-1.0206716E-2],"categories":[],"categories_nodes":[],"categories_segments":[],"categories_sizes":[],"default_left":[1,0,0,0,0,0,0,0,0,0,1,0,0,0,0],"id":48,"left_children":[1,3,-1,-1,5,-1,7,-1,9,11,13,-1,-1,-1,-1],"loss_changes":[5.26164E0,1.58782E0,0E0,0E0,1.6111621E0,0E0,1.6515937E0,0E0,1.7251956E0,1.5807521E-1,2.102491E0,0E0,0E0,0E0,0E0],"parents":[2147483647,0,0,1,1,4,4,6,6,8,8,9,9,10,10],"right_children":[2,4,-1,-1,6,-1,8,-1,10,12,14,-1,-1,-1,-1],"split_conditions":[5E0,2.00001E0,-8.55165E-2,7.907066E-2,4.541809E-1,7.7237144E-2,2.00001E0,8.473337E-2,2.00001E0,1.8E1,1E1,2.2554494E-2,7.5259104E-2,1.6358139E-2,-1.0206716E-2],"split_indices":[15247,9744,0,0,5984,0,2881,0,7992,15248,15248,0,0,0,0],"split_type":[0,0,0,0,0,0,0,0,0,0,0,0,0,0,0],"sum_hessian":[1.5615065E2,1.5026607E2,5.8845854E0,1.7578335E0,1.4850824E2,1.8270807E0,1.4668115E2,1.3193014E0,1.4536185E2,4.1516123E0,1.4121024E2,2.2586856E0,1.8929266E0,4.1288895E1,9.992135E1],"tree_param":{"num_deleted":"0","num_feature":"15251","num_nodes":"15","size_leaf_vector":"1"}},{"base_weights":[1.4649621E-3,3.7330944E-2,-8.441939E-2,5.139823E-2,-6.795671E-2,-7.424751E-2,6.377786E-2,9.00117E-2,4.9409147E-2,-6.842313E-2,6.453306E-2,4.2720637E-3,6.728748E-2],"categories":[],"categories_nodes":[],"categories_segments":[],"categories_sizes":[],"default_left":[1,1,0,0,0,0,0,0,0,0,1,0,0],"id":49,"left_children":[1,3,-1,5,-1,-1,7,-1,9,-1,11,-1,-1],"loss_changes":[4.772966E0,1.5569692E0,0E0,1.5112052E0,0E0,0E0,1.729049E0,0E0,1.6657484E0,0E0,1.883513E0,0E0,0E0],"parents":[2147483647,0,0,1,1,3,3,6,6,8,8,10,10],"right_children":[2,4,-1,6,-1,-1,8,-1,10,-1,12,-1,-1],"split_conditions":[5E0,4.4772062E-1,-8.441939E-2,2.00001E0,-6.795671E-2,-7.424751E-2,7.927096E-1,9.00117E-2,6.343211E-1,-6.842313E-2,2.4299257E-1,4.2720637E-3,6.728748E-2],"split_indices":[15247,12344,0,4979,0,0,5695,0,7182,0,1893,0,0],"split_type":[0,0,0,0,0,0,0,0,0,0,0,0,0],"sum_hessian":[1.5532677E2,1.4992407E2,5.402705E0,1.4794925E2,1.9748204E0,1.3661481E0,1.465831E2,1.4346424E0,1.4514845E2,2.0381658E0,1.4311029E2,1.3918979E2,3.9205015E0],"tree_param":{"num_deleted":"0","num_feature":"15251","num_nodes":"13","size_leaf_vector":"1"}},{"base_weights":[3.8052243E-4,3.340136E-2,-8.327175E-2,1.8674944E-2,7.1677655E-1,8.543307E-2,6.2758764E-3,1.9527009E-2,8.6969815E-2,5.288844E-1,-1.4517334E-2,1.0458208E-2,6.1473846E-2,6.320818E-2,-1.7413332E-1,9.144714E-2,3.445397E-3,-3.1196306E-2,2.7271653E-2],"categories":[],"categories_nodes":[],"categories_segments":[],"categories_sizes":[],"default_left":[1,1,0,0,0,0,0,0,0,0,1,0,0,0,0,0,0,0,0],"id":50,"left_children":[1,3,-1,5,7,-1,9,-1,-1,11,13,-1,-1,15,17,-1,-1,-1,-1],"loss_changes":[4.3046045E0,1.5011935E0,0E0,1.5317625E0,8.1228256E-2,0E0,1.6071501E0,0E0,0E0,1.4185333E-1,1.7792816E0,0E0,0E0,2.3327205E0,2.9762583E0,0E0,0E0,0E0,0E0],"parents":[2147483647,0,0,1,1,3,3,4,4,6,6,9,9,10,10,13,13,14,14],"right_children":[2,4,-1,6,8,-1,10,-1,-1,12,14,-1,-1,16,18,-1,-1,-1,-1],"split_conditions":[5E0,6.686074E-1,-8.327175E-2,2.00001E0,3E0,8.543307E-2,2.00001E0,1.9527009E-2,8.6969815E-2,8E0,4E0,1.0458208E-2,6.1473846E-2,7.059243E-1,2.5E1,9.144714E-2,3.445397E-3,-3.1196306E-2,2.7271653E-2],"split_indices":[15247,7792,0,15006,15247,0,7983,0,0,15248,15247,0,0,5984,15248,0,0,0,0],"split_type":[0,0,0,0,0,0,0,0,0,0,0,0,0,0,0,0,0,0,0],"sum_hessian":[1.5446542E2,1.4949973E2,4.965694E0,1.473517E2,2.148033E0,1.1615897E0,1.4619011E2,1.0033276E0,1.1447053E0,4.65893E0,1.4153117E2,1.1573399E0,3.50159E0,9.5588196E1,4.5942978E1,2.1168277E0,9.347137E1,3.534329E1,1.059969E1],"tree_param":{"num_deleted":"0","num_feature":"15251","num_nodes":"19","size_leaf_vector":"1"}},{"base_weights":[2.100179E-3,3.261385E-2,-8.20753E-2,-7.704219E-2,4.438361E-2,-7.7399164E-2,5.6133695E-2,6.3025177E-1,3.0995646E-2,6.9499755E-1,1.8295256E-2,6.551504E-1,1.224994E-2,2.4809016E-2,8.056359E-2,3.0366605E-2,8.331099E-2,-5.6551467E-4,6.313302E-2],"categories":[],"categories_nodes":[],"categories_segments":[],"categories_sizes":[],"default_left":[1,0,0,0,0,0,0,0,0,0,0,0,1,0,0,0,0,0,0],"id":51,"left_children":[1,3,-1,-1,5,-1,7,9,11,13,-1,15,17,-1,-1,-1,-1,-1,-1],"loss_changes":[3.9106264E0,1.4530139E0,0E0,0E0,1.4751923E0,0E0,2.1123502E0,5.0807476E-2,1.6601031E0,4.7876596E-2,0E0,5.849123E-3,1.549156E0,0E0,0E0,0E0,0E0,0E0,0E0],"parents":[2147483647,0,0,1,1,4,4,6,6,7,7,8,8,9,9,11,11,12,12],"right_children":[2,4,-1,-1,6,-1,8,10,12,14,-1,16,18,-1,-1,-1,-1,-1,-1],"split_conditions":[5E0,2.00001E0,-8.20753E-2,-7.704219E-2,1E0,-7.7399164E-2,5.868766E-1,2.4E1,2.00001E0,1.3E1,1.8295256E-2,1.3E1,5.7444686E-1,2.4809016E-2,8.056359E-2,3.0366605E-2,8.331099E-2,-5.6551467E-4,6.313302E-2],"split_indices":[15247,2495,0,0,2838,0,6096,15248,3156,15248,0,15248,7992,0,0,0,0,0,0],"split_type":[0,0,0,0,0,0,0,0,0,0,0,0,0,0,0,0,0,0,0],"sum_hessian":[1.5368445E2,1.491152E2,4.5692396E0,1.2228665E0,1.4789235E2,1.1751305E0,1.4671721E2,5.1448298E0,1.4157239E2,4.0105453E0,1.1342844E0,3.1380746E0,1.3843431E2,1.4392511E0,2.571294E0,1.9644682E0,1.1736063E0,1.3550606E2,2.9282508E0],"tree_param":{"num_deleted":"0","num_feature":"15251","num_nodes":"19","size_leaf_vector":"1"}},{"base_weights":[2.286697E-3,3.0475853E-2,-8.0832295E-2,7.618158E-2,1.7122382E-2,6.269588E-2,4.0789982E-4,7.188378E-2,-1.459171E-2,7.687258E-2,-2.884475E-2,-6.0323086E-3,3.4609992E-2],"categories":[],"categories_nodes":[],"categories_segments":[],"categories_sizes":[],"default_left":[1,0,0,0,0,0,0,0,0,0,1,0,0],"id":52,"left_children":[1,3,-1,-1,5,-1,7,-1,9,-1,11,-1,-1],"loss_changes":[3.5420334E0,1.4491316E0,0E0,0E0,1.5089388E0,0E0,1.5742321E0,0E0,1.6201E0,0E0,1.6913021E0,0E0,0E0],"parents":[2147483647,0,0,1,1,4,4,6,6,8,8,10,10],"right_children":[2,4,-1,-1,6,-1,8,-1,10,-1,12,-1,-1],"split_conditions":[5E0,2.00001E0,-8.0832295E-2,7.618158E-2,6.031409E-1,6.269588E-2,2.00001E0,7.188378E-2,2.00001E0,7.687258E-2,3.108137E-1,-6.0323086E-3,3.4609992E-2],"split_indices":[15247,9744,0,0,7984,0,1264,0,823,0,6096,0,0],"split_type":[0,0,0,0,0,0,0,0,0,0,0,0,0],"sum_hessian":[1.5293161E2,1.4872215E2,4.209447E0,1.6617507E0,1.4706041E2,2.949153E0,1.4411125E2,1.9876134E0,1.4212364E2,1.593867E0,1.4052977E2,1.3041956E2,1.0110209E1],"tree_param":{"num_deleted":"0","num_feature":"15251","num_nodes":"13","size_leaf_vector":"1"}},{"base_weights":[3.6444652E-3,2.9759225E-2,-7.954549E-2,7.464006E-2,1.6391544E-2,-8.123718E-2,2.8636707E-2,1.3919596E-2,6.9307095E-1,-7.837374E-2,2.9739559E-2,8.17834E-2,2.2083003E-2,4.32395E-3,-6.965145E-2],"categories":[],"categories_nodes":[],"categories_segments":[],"categories_sizes":[],"default_left":[1,0,0,0,0,0,1,0,0,0,1,0,0,0,0],"id":53,"left_children":[1,3,-1,-1,5,-1,7,9,11,-1,13,-1,-1,-1,-1],"loss_changes":[3.2197385E0,1.417761E0,0E0,0E0,1.5207579E0,0E0,1.4217172E0,1.8432878E0,5.077958E-3,0E0,1.4261155E0,0E0,0E0,0E0,0E0],"parents":[2147483647,0,0,1,1,4,4,6,6,7,7,8,8,10,10],"right_children":[2,4,-1,-1,6,-1,8,10,12,-1,14,-1,-1,-1,-1],"split_conditions":[5E0,4.541809E-1,-7.954549E-2,7.464006E-2,6.7050666E-1,-8.123718E-2,6.6366607E-1,6.343211E-1,9.3961096E-1,-7.837374E-2,4.261103E-1,8.17834E-2,2.2083003E-2,4.32395E-3,-6.965145E-2],"split_indices":[15247,5984,0,0,10319,0,4894,7182,4894,0,13883,0,0,0,0],"split_type":[0,0,0,0,0,0,0,0,0,0,0,0,0,0,0],"sum_hessian":[1.5215424E2,1.4827145E2,3.882788E0,1.7109547E0,1.465605E2,1.1825451E0,1.4537794E2,1.4322646E2,2.151493E0,1.8413796E0,1.4138507E2,1.1229912E0,1.028502E0,1.3972821E2,1.6568693E0],"tree_param":{"num_deleted":"0","num_feature":"15251","num_nodes":"15","size_leaf_vector":"1"}},{"base_weights":[2.427562E-3,2.6564596E-2,-7.821809E-2,8.084065E-2,1.43521065E-2,-1.6090575E-4,6.879668E-2,5.077271E-1,-1.9852066E-2,1.0059874E-2,5.9267055E-2,5.289659E-1,-3.9436884E-2,1.9281624E-2,7.244917E-2,1.3676896E-2,-1.1214383E-2],"categories":[],"categories_nodes":[],"categories_segments":[],"categories_sizes":[],"default_left":[1,0,0,0,1,0,0,0,0,0,0,0,1,0,0,0,0],"id":54,"left_children":[1,3,-1,-1,5,7,-1,9,11,-1,-1,13,15,-1,-1,-1,-1],"loss_changes":[2.910021E0,1.4108576E0,0E0,0E0,1.4440819E0,1.4660876E0,0E0,1.295979E-1,1.537648E0,0E0,0E0,1.8444431E-1,1.772862E0,0E0,0E0,0E0,0E0],"parents":[2147483647,0,0,1,1,4,4,5,5,7,7,8,8,11,11,12,12],"right_children":[2,4,-1,-1,6,8,-1,10,12,-1,-1,14,16,-1,-1,-1,-1],"split_conditions":[5E0,2.00001E0,-7.821809E-2,8.084065E-2,6.686074E-1,2.00001E0,6.879668E-2,8E0,2.00001E0,1.0059874E-2,5.9267055E-2,1.8E1,1E1,1.9281624E-2,7.244917E-2,1.3676896E-2,-1.1214383E-2],"split_indices":[15247,2881,0,0,7792,7983,0,15248,7992,0,0,15248,15248,0,0,0,0],"split_type":[0,0,0,0,0,0,0,0,0,0,0,0,0,0,0,0,0],"sum_hessian":[1.5156229E2,1.4797621E2,3.586073E0,1.273167E0,1.4670303E2,1.4458766E2,2.115377E0,4.4714866E0,1.4011618E2,1.14895E0,3.3225365E0,3.931664E0,1.3618451E2,2.176297E0,1.755367E0,3.952187E1,9.666264E1],"tree_param":{"num_deleted":"0","num_feature":"15251","num_nodes":"17","size_leaf_vector":"1"}},{"base_weights":[3.7688427E-3,2.6169216E-2,-7.685373E-2,-5.035039E-1,4.355866E-2,2.1828365E-2,-8.852852E-2,-5.91429E-2,6.753495E-2,3.258838E-1,-1.8156402E-2,3.9642474E-1,-4.533479E-2,-4.2545518E-1,6.914965E-2,5.7862032E-2,7.6929326E-3,-5.3361803E-2,3.7298903E-2,1.0123197E-2,-8.843496E-2],"categories":[],"categories_nodes":[],"categories_segments":[],"categories_sizes":[],"default_left":[1,0,0,0,0,0,0,0,1,1,0,1,0,1,1,0,0,0,0,0,0],"id":55,"left_children":[1,3,-1,5,7,-1,-1,-1,9,11,13,15,-1,17,19,-1,-1,-1,-1,-1,-1],"loss_changes":[2.6491292E0,1.3911089E0,0E0,1.5172677E0,2.2451653E0,0E0,0E0,0E0,3.1157436E0,2.1058357E0,3.8141065E0,1.8569713E0,0E0,1.8335941E0,2.7969403E0,0E0,0E0,0E0,0E0,0E0,0E0],"parents":[2147483647,0,0,1,1,3,3,4,4,8,8,9,9,10,10,11,11,13,13,14,14],"right_children":[2,4,-1,6,8,-1,-1,-1,10,12,14,16,-1,18,20,-1,-1,-1,-1,-1,-1],"split_conditions":[5E0,2.00001E0,-7.685373E-2,2E0,4E0,2.1828365E-2,-8.852852E-2,-5.91429E-2,1E1,7.520943E-1,1.3E1,2E0,-4.533479E-2,4.5218894E-1,7.059243E-1,5.7862032E-2,7.6929326E-3,-5.3361803E-2,3.7298903E-2,1.0123197E-2,-8.843496E-2],"split_indices":[15247,9226,0,15247,15248,0,0,0,15248,8983,15248,15247,0,6096,5984,0,0,0,0,0,0],"split_type":[0,0,0,0,0,0,0,0,0,0,0,0,0,0,0,0,0,0,0,0,0],"sum_hessian":[1.5096678E2,1.4765036E2,3.3164134E0,3.804763E0,1.4384561E2,1.4644171E0,2.340346E0,4.372669E0,1.3947293E2,3.4040882E1,1.0543205E2,3.1665577E1,2.3753037E0,1.792685E1,8.75052E1,1.9649311E1,1.2016267E1,1.6080193E1,1.8466576E0,8.55215E1,1.9837054E0],"tree_param":{"num_deleted":"0","num_feature":"15251","num_nodes":"21","size_leaf_vector":"1"}},{"base_weights":[1.6970601E-3,2.245735E-2,-7.545646E-2,8.206962E-2,1.0716612E-2,7.452622E-2,-2.2082503E-3,8.2881086E-2,-1.4503466E-2,7.242378E-2,-2.798136E-2,-5.1776664E-3,4.159281E-2],"categories":[],"categories_nodes":[],"categories_segments":[],"categories_sizes":[],"default_left":[1,0,0,0,0,0,0,0,0,0,1,0,0],"id":56,"left_children":[1,3,-1,-1,5,-1,7,-1,9,-1,11,-1,-1],"loss_changes":[2.392333E0,1.3803598E0,0E0,0E0,1.3981038E0,0E0,1.4991215E0,0E0,1.4580537E0,0E0,1.529714E0,0E0,0E0],"parents":[2147483647,0,0,1,1,4,4,6,6,8,8,10,10],"right_children":[2,4,-1,-1,6,-1,8,-1,10,-1,12,-1,-1],"split_conditions":[5E0,2.00001E0,-7.545646E-2,8.206962E-2,7.927096E-1,7.452622E-2,1.570608E0,8.2881086E-2,4.541809E-1,7.242378E-2,3.9883322E-1,-5.1776664E-3,4.159281E-2],"split_indices":[15247,15006,0,0,5695,0,13159,0,5984,0,7984,0,0],"split_type":[0,0,0,0,0,0,0,0,0,0,0,0,0],"sum_hessian":[1.5029654E2,1.4722533E2,3.0712073E0,1.1353108E0,1.4609001E2,1.5463569E0,1.4454366E2,1.1391717E0,1.434045E2,1.6245674E0,1.4177992E2,1.3540504E2,6.374884E0],"tree_param":{"num_deleted":"0","num_feature":"15251","num_nodes":"13","size_leaf_vector":"1"}},{"base_weights":[3.3586395E-3,2.2665687E-2,-7.40306E-2,-7.5356506E-2,3.4121115E-2,-7.759682E-2,4.5385793E-2,5.902941E-2,-6.310219E-2,-5.8963084E-1,7.373156E-2,-9.17457E-3,-7.962746E-2,3.4754567E-3,3.999213E-2],"categories":[],"categories_nodes":[],"categories_segments":[],"categories_sizes":[],"default_left":[1,0,0,0,0,0,1,0,0,0,0,0,0,0,0],"id":57,"left_children":[1,3,-1,-1,5,-1,7,9,-1,11,13,-1,-1,-1,-1],"loss_changes":[2.183315E0,1.3421476E0,0E0,0E0,1.3752811E0,0E0,1.3826064E0,1.4149724E0,0E0,2.6630867E-1,1.7852973E0,0E0,0E0,0E0,0E0],"parents":[2147483647,0,0,1,1,4,4,6,6,7,7,9,9,10,10],"right_children":[2,4,-1,-1,6,-1,8,10,-1,12,14,-1,-1,-1,-1],"split_conditions":[5E0,2.00001E0,-7.40306E-2,-7.5356506E-2,2.00001E0,-7.759682E-2,4.4772062E-1,4.938421E-1,-6.310219E-2,2.4E1,2.5E1,-9.17457E-3,-7.962746E-2,3.4754567E-3,3.999213E-2],"split_indices":[15247,2495,0,0,2237,0,12344,10395,0,15248,15248,0,0,0,0],"split_type":[0,0,0,0,0,0,0,0,0,0,0,0,0,0,0],"sum_hessian":[1.498943E2,1.470462E2,2.8480973E0,1.1963745E0,1.4584984E2,1.069269E0,1.4478056E2,1.4281267E2,1.9679006E0,2.2984784E0,1.4051419E2,1.0976919E0,1.2007865E0,1.26504486E2,1.40097E1],"tree_param":{"num_deleted":"0","num_feature":"15251","num_nodes":"15","size_leaf_vector":"1"}},{"base_weights":[7.655905E-4,-9.717736E-2,1.4774805E-2,3.189878E-2,-7.1233E-2,-7.427228E-2,4.325439E-2,5.936804E-1,2.019473E-2,6.636228E-1,1.4975649E-2,6.380524E-2,1.6272592E-3,2.2218695E-2,7.782172E-2,-5.6226198E-3,1.7870136E-2],"categories":[],"categories_nodes":[],"categories_segments":[],"categories_sizes":[],"default_left":[0,0,1,0,0,0,0,0,0,0,0,0,0,0,0,0,0],"id":58,"left_children":[1,-1,3,5,-1,-1,7,9,11,13,-1,-1,15,-1,-1,-1,-1],"loss_changes":[2.0619085E0,0E0,1.8795948E0,1.3222001E0,0E0,0E0,1.8346246E0,8.116174E-2,1.6127613E0,6.645799E-2,0E0,0E0,1.4193704E0,0E0,0E0,0E0,0E0],"parents":[2147483647,0,0,2,2,3,3,6,6,7,7,8,8,9,9,12,12],"right_children":[2,-1,4,6,-1,-1,8,10,12,14,-1,-1,16,-1,-1,-1,-1],"split_conditions":[1.4633579E0,-9.717736E-2,5E0,1E0,-7.1233E-2,-7.427228E-2,5.868766E-1,2.4E1,2.00001E0,1.3E1,1.4975649E-2,6.380524E-2,2E1,2.2218695E-2,7.782172E-2,-5.6226198E-3,1.7870136E-2],"split_indices":[1592,0,15247,2838,0,0,6096,15248,3156,15248,0,0,15248,0,0,0,0],"split_type":[0,0,0,0,0,0,0,0,0,0,0,0,0,0,0,0,0],"sum_hessian":[1.4928436E2,1.1490488E0,1.481353E2,1.4566098E2,2.4743195E0,1.173955E0,1.4448703E2,4.8147697E0,1.3967226E2,3.7318895E0,1.08288E0,3.1015053E0,1.3657076E2,1.3748081E0,2.3570814E0,1.0345313E2,3.3117622E1],"tree_param":{"num_deleted":"0","num_feature":"15251","num_nodes":"17","size_leaf_vector":"1"}},{"base_weights":[3.6874125E-4,-9.2971675E-2,1.36708375E-2,2.9627932E-2,-6.975034E-2,-7.143236E-2,4.1223634E-2,8.377007E-2,2.793866E-2,-6.25569E-2,4.159725E-2,-7.5130366E-2,5.2828607E-3],"categories":[],"categories_nodes":[],"categories_segments":[],"categories_sizes":[],"default_left":[0,0,1,0,0,0,0,0,0,0,0,0,0],"id":59,"left_children":[1,-1,3,5,-1,-1,7,-1,9,-1,11,-1,-1],"loss_changes":[1.866532E0,0E0,1.7082878E0,1.2924521E0,0E0,0E0,1.5119877E0,0E0,1.3092215E0,0E0,1.3020633E0,0E0,0E0],"parents":[2147483647,0,0,2,2,3,3,6,6,8,8,10,10],"right_children":[2,-1,4,6,-1,-1,8,-1,10,-1,12,-1,-1],"split_conditions":[1.4633579E0,-9.2971675E-2,5E0,2.00001E0,-6.975034E-2,-7.143236E-2,7.927096E-1,8.377007E-2,6.343211E-1,-6.25569E-2,2.00001E0,-7.5130366E-2,5.2828607E-3],"split_indices":[1592,0,15247,4979,0,0,5695,0,7182,0,2237,0,0],"split_type":[0,0,0,0,0,0,0,0,0,0,0,0,0],"sum_hessian":[1.4883907E2,1.1272748E0,1.4771179E2,1.4540753E2,2.3042672E0,1.3015394E0,1.4410599E2,1.3461096E0,1.4275989E2,2.0054793E0,1.407544E2,1.0455875E0,1.3970882E2],"tree_param":{"num_deleted":"0","num_feature":"15251","num_nodes":"13","size_leaf_vector":"1"}},{"base_weights":[-1.608047E-3,-8.907541E-2,1.1026665E-2,2.590802E-2,-6.8257675E-2,7.347543E-2,1.3510377E-2,6.914967E-2,5.878251E-5,-1.4343532E-2,6.557869E-2,7.2362475E-2,-2.7676092E-3],"categories":[],"categories_nodes":[],"categories_segments":[],"categories_sizes":[],"default_left":[0,0,1,0,0,0,0,0,1,0,0,0,0],"id":60,"left_children":[1,-1,3,5,-1,-1,7,-1,9,11,-1,-1,-1],"loss_changes":[1.6869283E0,0E0,1.5471951E0,1.2734241E0,0E0,0E0,1.3181878E0,0E0,1.3573556E0,1.4038024E0,0E0,0E0,0E0],"parents":[2147483647,0,0,2,2,3,3,6,6,8,8,9,9],"right_children":[2,-1,4,6,-1,-1,8,-1,10,12,-1,-1,-1],"split_conditions":[1.4633579E0,-8.907541E-2,5E0,2.00001E0,-6.8257675E-2,7.347543E-2,2.00001E0,6.914967E-2,6.6366607E-1,2.00001E0,6.557869E-2,7.2362475E-2,-2.7676092E-3],"split_indices":[1592,0,15247,823,0,0,1264,0,4894,9744,0,0,0],"split_type":[0,0,0,0,0,0,0,0,0,0,0,0,0],"sum_hessian":[1.4828706E2,1.1038659E0,1.471832E2,1.4503412E2,2.1490793E0,1.4914849E0,1.4354263E2,1.8119227E0,1.4173071E2,1.3964177E2,2.088945E0,1.5326619E0,1.381091E2],"tree_param":{"num_deleted":"0","num_feature":"15251","num_nodes":"13","size_leaf_vector":"1"}},{"base_weights":[-6.0935295E-4,-8.5459255E-2,1.1403254E-2,2.5325831E-2,-6.675982E-2,7.707579E-2,1.3694031E-2,-1.566526E-4,6.537106E-2,5.833532E-1,-1.5668692E-2,1.7757634E-2,6.711507E-2,5.2233664E-3,-1.5982008E-2],"categories":[],"categories_nodes":[],"categories_segments":[],"categories_sizes":[],"default_left":[0,0,1,0,0,0,1,0,0,0,1,0,0,0,0],"id":61,"left_children":[1,-1,3,5,-1,-1,7,9,-1,11,13,-1,-1,-1,-1],"loss_changes":[1.5375991E0,0E0,1.4146508E0,1.254052E0,0E0,0E0,1.2821572E0,1.2995253E0,0E0,1.3273239E-2,1.3771675E0,0E0,0E0,0E0,0E0],"parents":[2147483647,0,0,2,2,3,3,6,6,7,7,9,9,10,10],"right_children":[2,-1,4,6,-1,-1,8,10,-1,12,14,-1,-1,-1,-1],"split_conditions":[1.4633579E0,-8.5459255E-2,5E0,2.00001E0,-6.675982E-2,7.707579E-2,6.686074E-1,6.031409E-1,6.537106E-2,4.3081486E-1,4E0,1.7757634E-2,6.711507E-2,5.2233664E-3,-1.5982008E-2],"split_indices":[1592,0,15247,2881,0,0,7792,7984,0,7984,15247,0,0,0,0],"split_type":[0,0,0,0,0,0,0,0,0,0,0,0,0,0,0],"sum_hessian":[1.4793446E2,1.079103E0,1.4685536E2,1.4484804E2,2.0073333E0,1.2227731E0,1.4362526E2,1.4156146E2,2.063795E0,2.7178736E0,1.3884358E2,1.0211151E0,1.6967585E0,9.4817535E1,4.4026054E1],"tree_param":{"num_deleted":"0","num_feature":"15251","num_nodes":"15","size_leaf_vector":"1"}},{"base_weights":[-9.7946526E-5,-8.2095966E-2,1.1330799E-2,-8.0135785E-2,2.2458337E-2,-7.344258E-2,3.379163E-2,-6.811616E-2,4.5683775E-2,-4.6230823E-1,6.2766716E-2,2.0552227E-2,-8.15679E-2,-5.3631462E-2,8.635067E-3],"categories":[],"categories_nodes":[],"categories_segments":[],"categories_sizes":[],"default_left":[0,0,0,0,0,0,0,0,0,0,0,0,0,0,0],"id":62,"left_children":[1,-1,3,-1,5,-1,7,-1,9,11,13,-1,-1,-1,-1],"loss_changes":[1.4027891E0,0E0,1.3517246E0,0E0,1.2811867E0,0E0,1.2661619E0,0E0,1.2770877E0,1.3000755E0,2.0246327E0,0E0,0E0,0E0,0E0],"parents":[2147483647,0,0,2,2,4,4,6,6,8,8,9,9,10,10],"right_children":[2,-1,4,-1,6,-1,8,-1,10,12,14,-1,-1,-1,-1],"split_conditions":[1.4633579E0,-8.2095966E-2,2.00001E0,-8.0135785E-2,2.00001E0,-7.344258E-2,6.7050666E-1,-6.811616E-2,2.00001E0,2E0,4E0,2.0552227E-2,-8.15679E-2,-5.3631462E-2,8.635067E-3],"split_indices":[1592,0,4023,0,2495,0,10319,0,9226,15247,15248,0,0,0,0],"split_type":[0,0,0,0,0,0,0,0,0,0,0,0,0,0,0],"sum_hessian":[1.475369E2,1.0532752E0,1.4648363E2,1.0193677E0,1.4546426E2,1.2047331E0,1.4425952E2,1.4394884E0,1.4282004E2,3.7986224E0,1.3902141E2,1.4592329E0,2.3393893E0,4.4421043E0,1.3457932E2],"tree_param":{"num_deleted":"0","num_feature":"15251","num_nodes":"15","size_leaf_vector":"1"}},{"base_weights":[-2.8501793E-3,1.0654615E-2,-6.644536E-2,-4.208817E-3,5.8459157E-1,7.750178E-2,-1.5634423E-2,7.098267E-2,1.3045023E-2,4.801435E-1,-3.434144E-2,8.317789E-3,5.669568E-2,3.9098416E-2,-1.8921785E-1,8.775019E-2,1.1886618E-3,-8.910213E-2,-1.0785097E-2],"categories":[],"categories_nodes":[],"categories_segments":[],"categories_sizes":[],"default_left":[1,1,0,0,0,0,0,0,0,0,1,0,0,0,0,0,0,0,0],"id":63,"left_children":[1,3,-1,5,7,-1,9,-1,-1,11,13,-1,-1,15,17,-1,-1,-1,-1],"loss_changes":[1.3307214E0,1.2493463E0,0E0,1.2894331E0,1.1766076E-1,0E0,1.3369503E0,0E0,0E0,1.3354647E-1,1.5785198E0,0E0,0E0,2.1462004E0,2.4508586E0,0E0,0E0,0E0,0E0],"parents":[2147483647,0,0,1,1,3,3,4,4,6,6,9,9,10,10,13,13,14,14],"right_children":[2,4,-1,6,8,-1,10,-1,-1,12,14,-1,-1,16,18,-1,-1,-1,-1],"split_conditions":[5E0,5.7444686E-1,-6.644536E-2,2.00001E0,6.6422445E-1,7.750178E-2,2.00001E0,7.098267E-2,1.3045023E-2,8E0,4E0,8.317789E-3,5.669568E-2,7.059243E-1,1.6E1,8.775019E-2,1.1886618E-3,-8.910213E-2,-1.0785097E-2],"split_indices":[15247,7992,0,15006,7992,0,7983,0,0,15248,15247,0,0,5984,15248,0,0,0,0],"split_type":[0,0,0,0,0,0,0,0,0,0,0,0,0,0,0,0,0,0,0],"sum_hessian":[1.4714423E2,1.45165E2,1.9792441E0,1.4246811E2,2.6968765E0,1.0930119E0,1.413751E2,1.6726218E0,1.0242546E0,4.2436037E0,1.371315E2,1.1128899E0,3.1307137E0,9.352908E1,4.360241E1,1.9579189E0,9.157117E1,3.496223E0,4.0106186E1],"tree_param":{"num_deleted":"0","num_feature":"15251","num_nodes":"19","size_leaf_vector":"1"}},{"base_weights":[-1.4941054E-3,-1.2518807E-2,7.728429E-2,-2.513421E-2,6.6954374E-2,-3.7310857E-2,7.058663E-2,-7.10607E-1,-2.1580983E-2,-9.585979E-3,-9.773884E-2,5.6438947E-1,-4.1933715E-2,8.46689E-2,9.758752E-3,6.2090036E-2,-6.677858E-3],"categories":[],"categories_nodes":[],"categories_segments":[],"categories_sizes":[],"default_left":[1,1,0,1,0,0,0,0,0,0,0,0,0,0,0,0,0],"id":64,"left_children":[1,3,-1,5,-1,7,-1,9,11,-1,-1,13,15,-1,-1,-1,-1],"loss_changes":[1.2705897E0,1.278363E0,0E0,1.3162426E0,0E0,1.5043497E0,0E0,4.3840575E-1,1.708178E0,0E0,0E0,5.5128133E-1,2.3047507E0,0E0,0E0,0E0,0E0],"parents":[2147483647,0,0,1,1,3,3,5,5,7,7,8,8,11,11,12,12],"right_children":[2,4,-1,6,-1,8,-1,10,12,-1,-1,14,16,-1,-1,-1,-1],"split_conditions":[5.5513734E-1,4.6024293E-1,7.728429E-2,3.8180187E-1,6.6954374E-2,4.938421E-1,7.058663E-2,2.4E1,7.059243E-1,-9.585979E-3,-9.773884E-2,4E0,7.520943E-1,8.46689E-2,9.758752E-3,6.2090036E-2,-6.677858E-3],"split_indices":[4889,1264,0,823,0,10395,0,15248,5984,0,0,15247,8983,0,0,0,0],"split_type":[0,0,0,0,0,0,0,0,0,0,0,0,0,0,0,0,0],"sum_hessian":[1.4670282E2,1.4561346E2,1.0893538E0,1.4391478E2,1.6986922E0,1.424902E2,1.4245732E0,2.2444377E0,1.4024576E2,1.090623E0,1.1538147E0,3.8104231E0,1.3643535E2,1.8673384E0,1.9430847E0,4.06245E0,1.323729E2],"tree_param":{"num_deleted":"0","num_feature":"15251","num_nodes":"17","size_leaf_vector":"1"}},{"base_weights":[4.804636E-4,-7.780957E-2,1.114411E-2,-7.5109065E-2,2.167308E-2,-6.945834E-2,3.2812804E-2,1.9943424E-2,8.245716E-2,-7.03619E-2,3.0981319E-2,2.4695342E-4,3.811125E-2],"categories":[],"categories_nodes":[],"categories_segments":[],"categories_sizes":[],"default_left":[0,0,0,0,0,0,1,0,0,0,1,0,0],"id":65,"left_children":[1,-1,3,-1,5,-1,7,9,-1,-1,11,-1,-1],"loss_changes":[1.2339214E0,0E0,1.1925721E0,0E0,1.1840692E0,0E0,1.453582E0,1.163779E0,0E0,0E0,1.4145916E0,0E0,0E0],"parents":[2147483647,0,0,2,2,4,4,6,6,7,7,10,10],"right_children":[2,-1,4,-1,6,-1,8,10,-1,-1,12,-1,-1],"split_conditions":[1.4633579E0,-7.780957E-2,2.00001E0,-7.5109065E-2,2.00001E0,-6.945834E-2,4.4957098E-1,1E0,8.245716E-2,-7.03619E-2,2.6398355E-1,2.4695342E-4,3.811125E-2],"split_indices":[1592,0,4023,0,4979,0,13159,2838,0,0,6096,0,0],"split_type":[0,0,0,0,0,0,0,0,0,0,0,0,0],"sum_hessian":[1.4657675E2,1.008072E0,1.4556868E2,1.0250565E0,1.4454362E2,1.2740405E0,1.4326958E2,1.419869E2,1.2826899E0,1.1906552E0,1.4079623E2,1.3112552E2,9.670723E0],"tree_param":{"num_deleted":"0","num_feature":"15251","num_nodes":"13","size_leaf_vector":"1"}},{"base_weights":[-7.061077E-4,-1.2478818E-2,6.9871925E-2,-2.7016394E-2,5.669258E-1,-4.0732376E-2,6.2060196E-2,6.9114834E-2,1.2702807E-2,-5.477269E-2,6.214687E-2,-7.769791E-2,3.8207686E-1,-2.4410887E-4,-2.2885492E-2,7.0292614E-2,1.1827313E-2],"categories":[],"categories_nodes":[],"categories_segments":[],"categories_sizes":[],"default_left":[1,1,0,1,0,1,0,0,0,1,0,1,0,0,0,0,0],"id":66,"left_children":[1,3,-1,5,7,9,-1,-1,-1,11,-1,13,15,-1,-1,-1,-1],"loss_changes":[1.2206497E0,1.242819E0,0E0,1.2965508E0,1.0960662E-1,1.3458027E0,0E0,0E0,0E0,1.4225278E0,0E0,1.5120959E0,5.1812375E-1,0E0,0E0,0E0,0E0],"parents":[2147483647,0,0,1,1,3,3,4,4,5,5,9,9,11,11,12,12],"right_children":[2,4,-1,6,8,10,-1,-1,-1,12,-1,14,16,-1,-1,-1,-1],"split_conditions":[4.6462318E-1,5.7444686E-1,6.9871925E-2,6.6366607E-1,6.6422445E-1,6.686074E-1,6.2060196E-2,6.9114834E-2,1.2702807E-2,3.9883322E-1,6.214687E-2,4E0,6.031409E-1,-2.4410887E-4,-2.2885492E-2,7.0292614E-2,1.1827313E-2],"split_indices":[9744,7992,0,4894,7992,7792,0,0,0,7984,0,15247,7984,0,0,0,0],"split_type":[0,0,0,0,0,0,0,0,0,0,0,0,0,0,0,0,0],"sum_hessian":[1.4618376E2,1.4472984E2,1.4539305E0,1.421174E2,2.6124303E0,1.4008759E2,2.0298266E0,1.5917735E0,1.0206568E0,1.3807729E2,2.0102956E0,1.3197365E2,6.103642E0,8.878583E1,4.3187813E1,2.0029678E0,4.100674E0],"tree_param":{"num_deleted":"0","num_feature":"15251","num_nodes":"17","size_leaf_vector":"1"}},{"base_weights":[1.7396462E-3,-8.943934E-3,7.527473E-2,-2.0014891E-2,7.336255E-2,-3.0868655E-2,7.459491E-2,-8.932865E-3,-5.1365178E-2,6.08333E-1,-2.9702045E-2,8.177749E-2,1.7847193E-2,7.114324E-2,-4.4482416E-3],"categories":[],"categories_nodes":[],"categories_segments":[],"categories_sizes":[],"default_left":[1,1,0,1,0,1,0,0,0,0,0,0,0,0,0],"id":67,"left_children":[1,3,-1,5,-1,7,-1,9,-1,11,13,-1,-1,-1,-1],"loss_changes":[1.1850128E0,1.2131593E0,0E0,1.225296E0,0E0,1.5156882E0,0E0,1.7915155E0,0E0,2.6364994E-1,1.5080993E0,0E0,0E0,0E0,0E0],"parents":[2147483647,0,0,1,1,3,3,5,5,7,7,9,9,10,10],"right_children":[2,4,-1,6,-1,8,-1,10,-1,12,14,-1,-1,-1,-1],"split_conditions":[4.5864818E-1,5.608004E-1,7.527473E-2,5.5513734E-1,7.336255E-2,2.8E1,7.459491E-2,7.059243E-1,-5.1365178E-2,4E0,4.3022382E-1,8.177749E-2,1.7847193E-2,7.114324E-2,-4.4482416E-3],"split_indices":[15006,2881,0,4889,0,15248,0,5984,0,15247,6096,0,0,0,0],"split_type":[0,0,0,0,0,0,0,0,0,0,0,0,0,0,0],"sum_hessian":[1.4585458E2,1.4478304E2,1.0715438E0,1.4361493E2,1.1681067E0,1.4255463E2,1.0603095E0,1.3733324E2,5.221386E0,3.5495462E0,1.3378369E2,1.7799042E0,1.769642E0,1.6942652E0,1.3208943E2],"tree_param":{"num_deleted":"0","num_feature":"15251","num_nodes":"15","size_leaf_vector":"1"}},{"base_weights":[3.9405683E-3,-7.8200335E-3,6.547698E-2,-1.9235454E-2,6.8760514E-2,-6.56455E-1,-4.7005904E-3,-8.393384E-3,-9.129013E-2,5.2427155E-1,-2.2395166E-2,7.9053946E-2,9.971309E-3,5.8077765E-1,-4.461355E-2,-1.2180619E-2,1.0035038E-1,-2.8338782E-3,-9.2822365E-2],"categories":[],"categories_nodes":[],"categories_segments":[],"categories_sizes":[],"default_left":[1,1,0,0,0,0,0,0,0,0,0,0,0,0,1,0,0,0,0],"id":68,"left_children":[1,3,-1,5,-1,7,9,-1,-1,11,13,-1,-1,15,17,-1,-1,-1,-1],"loss_changes":[1.1279731E0,1.1649789E0,0E0,1.3279676E0,0E0,3.9287293E-1,1.336313E0,0E0,0E0,4.4362128E-1,1.8738941E0,0E0,0E0,1.5984162E0,1.8995849E0,0E0,0E0,0E0,0E0],"parents":[2147483647,0,0,1,1,3,3,5,5,6,6,9,9,10,10,13,13,14,14],"right_children":[2,4,-1,6,-1,8,10,-1,-1,12,14,-1,-1,16,18,-1,-1,-1,-1],"split_conditions":[4.6024293E-1,3.8180187E-1,6.547698E-2,4.938421E-1,6.8760514E-2,2.4E1,7.059243E-1,-8.393384E-3,-9.129013E-2,4E0,7.520943E-1,7.9053946E-2,9.971309E-3,1.6E1,4.110406E-1,-1.2180619E-2,1.0035038E-1,-2.8338782E-3,-9.2822365E-2],"split_indices":[1264,823,0,10395,0,15248,5984,0,0,15247,8983,0,0,15248,13883,0,0,0,0],"split_type":[0,0,0,0,0,0,0,0,0,0,0,0,0,0,0,0,0,0,0],"sum_hessian":[1.4569872E2,1.4408308E2,1.6156231E0,1.427128E2,1.370294E0,2.1977465E0,1.4051505E2,1.0904942E0,1.1072524E0,3.6215434E0,1.3689351E2,1.6959049E0,1.9256386E0,3.970305E0,1.329232E2,1.7588677E0,2.211437E0,1.3153264E2,1.3905623E0],"tree_param":{"num_deleted":"0","num_feature":"15251","num_nodes":"19","size_leaf_vector":"1"}},{"base_weights":[4.4192304E-3,-6.786776E-3,6.812436E-2,-2.2681704E-2,4.7848576E-1,-4.0386997E-2,4.4793484E-1,1.6180512E-2,6.75526E-2,-6.1960373E-2,3.704716E-1,8.592802E-3,5.258679E-2,-9.0924844E-2,2.8423458E-1,6.867445E-2,1.17998436E-1,9.191729E-3,-1.6554153E-2,6.1204392E-2,1.7174583E-2,-2.1003995E-2,2.8830841E-2],"categories":[],"categories_nodes":[],"categories_segments":[],"categories_sizes":[],"default_left":[1,1,0,1,0,1,0,0,0,1,0,0,0,1,0,0,0,0,0,0,0,0,0],"id":69,"left_children":[1,3,-1,5,7,9,11,-1,-1,13,15,-1,-1,17,19,-1,21,-1,-1,-1,-1,-1,-1],"loss_changes":[1.11574E0,1.130082E0,0E0,1.1967523E0,1.8068242E-1,1.2394282E0,1.0184169E-1,0E0,0E0,1.3419691E0,4.7713262E-1,0E0,0E0,1.6780012E0,2.774936E-1,0E0,3.4518337E-1,0E0,0E0,0E0,0E0,0E0,0E0],"parents":[2147483647,0,0,1,1,3,3,4,4,5,5,6,6,9,9,10,10,13,13,14,14,16,16],"right_children":[2,4,-1,6,8,10,12,-1,-1,14,16,-1,-1,18,20,-1,22,-1,-1,-1,-1,-1,-1],"split_conditions":[4.6462318E-1,4.2210472E-1,6.812436E-2,2.0977867E-1,1.8E1,3.9883322E-1,8E0,1.6180512E-2,6.75526E-2,3.108137E-1,6.031409E-1,8.592802E-3,5.258679E-2,1E1,4.3022382E-1,6.867445E-2,7.2591734E-1,9.191729E-3,-1.6554153E-2,6.1204392E-2,1.7174583E-2,-2.1003995E-2,2.8830841E-2],"split_indices":[9744,7992,0,7983,15248,7984,15248,0,0,6096,7984,0,0,15248,6096,0,7984,0,0,0,0,0,0],"split_type":[0,0,0,0,0,0,0,0,0,0,0,0,0,0,0,0,0,0,0,0,0,0,0],"sum_hessian":[1.4549835E2,1.4410245E2,1.3958945E0,1.4045515E2,3.6472983E0,1.3624365E2,4.2115054E0,2.0974617E0,1.5498366E0,1.302535E2,5.990161E0,1.1185087E0,3.0929968E0,1.20877594E2,9.375891E0,1.8955443E0,4.0946164E0,3.496553E1,8.591206E1,1.2607981E0,8.115092E0,1.3196073E0,2.7750094E0],"tree_param":{"num_deleted":"0","num_feature":"15251","num_nodes":"23","size_leaf_vector":"1"}},{"base_weights":[6.5888613E-3,-7.047035E-2,1.7131269E-2,-7.134792E-2,2.733604E-2,3.9894845E-2,-5.8429923E-2,-6.896157E-2,5.0595775E-2,8.258388E-2,3.8319778E-2,1.0223632E-2,-8.456548E-3],"categories":[],"categories_nodes":[],"categories_segments":[],"categories_sizes":[],"default_left":[0,0,0,0,1,0,0,0,0,0,1,0,0],"id":70,"left_children":[1,-1,3,-1,5,7,-1,-1,9,-1,11,-1,-1],"loss_changes":[1.1066624E0,0E0,1.0991982E0,0E0,1.1277636E0,1.1420462E0,0E0,0E0,1.3074471E0,0E0,1.1048248E0,0E0,0E0],"parents":[2147483647,0,0,2,2,4,4,5,5,8,8,10,10],"right_children":[2,-1,4,-1,6,8,-1,-1,10,-1,12,-1,-1],"split_conditions":[2.00001E0,-7.047035E-2,2.00001E0,-7.134792E-2,4.3903735E-1,4.3069297E-1,-5.8429923E-2,-6.896157E-2,4.5813784E-1,8.258388E-2,4E0,1.0223632E-2,-8.456548E-3],"split_indices":[2495,0,2237,0,12344,15062,0,0,15062,0,15247,0,0],"split_type":[0,0,0,0,0,0,0,0,0,0,0,0,0],"sum_hessian":[1.4497E2,1.1556269E0,1.4381438E2,1.0317264E0,1.4278264E2,1.4082582E2,1.9568254E0,1.11867E0,1.3970715E2,1.1447108E0,1.3856244E2,9.126213E1,4.730031E1],"tree_param":{"num_deleted":"0","num_feature":"15251","num_nodes":"13","size_leaf_vector":"1"}},{"base_weights":[4.6787425E-3,-6.5388037E-3,6.7902654E-2,-1.7078007E-2,7.327965E-2,-2.9881854E-2,5.980903E-2,-4.3012444E-2,5.933835E-2,-5.7434008E-2,5.3768164E-1,1.3280757E-2,-1.068799E-2,1.1692276E-2,6.619147E-2],"categories":[],"categories_nodes":[],"categories_segments":[],"categories_sizes":[],"default_left":[1,1,0,1,0,1,0,1,0,1,0,0,0,0,0],"id":71,"left_children":[1,3,-1,5,-1,7,-1,9,-1,11,13,-1,-1,-1,-1],"loss_changes":[1.1055186E0,1.135864E0,0E0,1.1451435E0,0E0,1.1806906E0,0E0,1.1963823E0,0E0,1.3001156E0,1.0394478E-1,0E0,0E0,0E0,0E0],"parents":[2147483647,0,0,1,1,3,3,5,5,7,7,9,9,10,10],"right_children":[2,4,-1,6,-1,8,-1,10,-1,12,14,-1,-1,-1,-1],"split_conditions":[4.4957098E-1,4.5864818E-1,6.7902654E-2,6.686074E-1,7.327965E-2,6.6366607E-1,5.980903E-2,5.7444686E-1,5.933835E-2,2E0,7.6504385E-1,1.3280757E-2,-1.068799E-2,1.1692276E-2,6.619147E-2],"split_indices":[13159,15006,0,7792,0,4894,0,7992,0,15247,12507,0,0,0,0],"split_type":[0,0,0,0,0,0,0,0,0,0,0,0,0,0,0],"sum_hessian":[1.4455814E2,1.4316692E2,1.3912294E0,1.4211794E2,1.0489862E0,1.4015228E2,1.965644E0,1.3817233E2,1.9799453E0,1.3570323E2,2.4691021E0,2.7646858E1,1.0805638E2,1.0053362E0,1.463766E0],"tree_param":{"num_deleted":"0","num_feature":"15251","num_nodes":"15","size_leaf_vector":"1"}},{"base_weights":[6.6262437E-3,-3.3955763E-3,7.180359E-2,-1.4266734E-2,6.697243E-2,-2.477724E-2,6.997588E-2,-4.0183883E-2,4.8191884E-1,-5.2320685E-2,6.3690595E-2,1.2730849E-1,7.8354746E-2,-7.3450054E-3,3.5864614E-2,-4.934683E-3,2.4704121E-2],"categories":[],"categories_nodes":[],"categories_segments":[],"categories_sizes":[],"default_left":[1,1,0,1,0,1,0,1,0,1,0,0,0,0,0,0,0],"id":72,"left_children":[1,3,-1,5,-1,7,-1,9,11,13,-1,15,-1,-1,-1,-1,-1],"loss_changes":[1.0395546E0,1.0665109E0,0E0,1.0914496E0,0E0,1.1279914E0,0E0,1.1734957E0,3.5671473E-1,1.2179464E0,0E0,7.89347E-2,0E0,0E0,0E0,0E0,0E0],"parents":[2147483647,0,0,1,1,3,3,5,5,7,7,8,8,9,9,11,11],"right_children":[2,4,-1,6,-1,8,-1,10,12,14,-1,16,-1,-1,-1,-1,-1],"split_conditions":[5.5513734E-1,3.8180187E-1,7.180359E-2,5.608004E-1,6.697243E-2,4.9593264E-1,6.997588E-2,4.6024293E-1,3E0,3.9883322E-1,6.3690595E-2,7.703771E-1,7.8354746E-2,-7.3450054E-3,3.5864614E-2,-4.934683E-3,2.4704121E-2],"split_indices":[4889,823,0,2881,0,3156,0,1264,15247,7984,0,3156,0,0,0,0,0],"split_type":[0,0,0,0,0,0,0,0,0,0,0,0,0,0,0,0,0],"sum_hessian":[1.444659E2,1.4344043E2,1.0254571E0,1.4212389E2,1.3165532E0,1.4101346E2,1.1104283E0,1.3774583E2,3.2676175E0,1.362267E2,1.5191299E0,2.1555321E0,1.1120855E0,1.3034637E2,5.8803277E0,1.1082553E0,1.0472769E0],"tree_param":{"num_deleted":"0","num_feature":"15251","num_nodes":"17","size_leaf_vector":"1"}},{"base_weights":[8.803318E-3,2.0065151E-2,-6.16026E-2,-3.2140523E-2,1.7426404E-1,8.926127E-2,-5.0480906E-2,7.982064E-2,5.5163763E-2,-1.2605464E-2,-3.9255464E-1,-1.3722818E-1,2.5384107E-1,1.3050674E-1,-4.188063E-2,-1.6815017E-1,-8.5824564E-2,3.6234915E-2,-3.7320238E-1,-3.594982E-2,3.2679415E-1,9.460582E-3,-1.2923472E-2,-2.5454536E-2,-8.45333E-3,-4.087716E-2,1.6244542E-2,5.2087665E-2,-6.253047E-2,3.573195E-2,1.6992558E-2],"categories":[],"categories_nodes":[],"categories_segments":[],"categories_sizes":[],"default_left":[1,0,0,0,0,0,0,0,0,0,1,0,0,0,0,0,0,0,0,0,0,0,0,0,0,0,0,0,0,0,0],"id":73,"left_children":[1,3,-1,5,7,-1,9,-1,11,13,15,17,19,-1,21,23,-1,25,27,-1,29,-1,-1,-1,-1,-1,-1,-1,-1,-1,-1],"loss_changes":[1.0346919E0,1.162244E0,0E0,1.8799038E0,2.6681132E0,0E0,1.3817152E0,0E0,1.2473401E0,3.8115313E0,9.6716845E-1,6.997442E-1,8.3145773E-1,0E0,1.1597023E0,3.9316386E-2,0E0,6.6026163E-1,1.9465574E0,0E0,1.0075927E-2,0E0,0E0,0E0,0E0,0E0,0E0,0E0,0E0,0E0,0E0],"parents":[2147483647,0,0,1,1,3,3,4,4,6,6,8,8,9,9,10,10,11,11,12,12,14,14,15,15,17,17,18,18,20,20],"right_children":[2,4,-1,6,8,-1,10,-1,12,14,16,18,20,-1,22,24,-1,26,28,-1,30,-1,-1,-1,-1,-1,-1,-1,-1,-1,-1],"split_conditions":[5E0,2E1,-6.16026E-2,7.9778314E-1,2.1E1,8.926127E-2,1.9E1,7.982064E-2,2.5E1,1E0,6.564837E-1,2.3E1,5.436655E-1,1.3050674E-1,1E1,4E0,-8.5824564E-2,4E0,4E0,-3.594982E-2,3.3E1,9.460582E-3,-1.2923472E-2,-2.5454536E-2,-8.45333E-3,-4.087716E-2,1.6244542E-2,5.2087665E-2,-6.253047E-2,3.573195E-2,1.6992558E-2],"split_indices":[15247,15248,0,3501,15248,0,15248,0,15248,8662,15062,15248,10395,0,15248,15247,0,15247,15247,0,15248,0,0,0,0,0,0,0,0,0,0],"split_type":[0,0,0,0,0,0,0,0,0,0,0,0,0,0,0,0,0,0,0,0,0,0,0,0,0,0,0,0,0,0,0],"sum_hessian":[1.4428513E2,1.4268135E2,1.6037809E0,1.0718447E2,3.5496876E1,